{"learner":{"attributes":{"scikit_learn":"{\"_estimator_type\": \"regressor\"}"},"feature_names":["Year_of_Study","Pre_Semester_GPA","Weekly_GenAI_Hours","Prompt_Engineering_Skill","Tool_Diversity","Paid_Subscription","Traditional_Study_Hours","Perceived_AI_Dependency","Anxiety_Level_During_Exams","is_Copywriting/Drafting","is_Ideation","is_Summarizing_Reading","is_Debugging/Troubleshooting","is_Direct_Answer_Generation","is_Allowed_With_Citation","is_Strict_Ban","is_Actively_Encouraged","major_is_Humanities","major_is_Medical","major_is_Business","major_is_STEM","major_is_Arts"],"feature_types":["int","float","float","int","int","i","float","int","int","i","i","i","i","i","i","i","i","i","i","i","i","i"],"gradient_booster":{"model":{"cats":{"enc":[],"feature_segments":[],"sorted_idx":[]},"gbtree_model_param":{"num_parallel_tree":"1","num_trees":"223"},"iteration_indptr":[0,1,2,3,4,5,6,7,8,9,10,11,12,13,14,15,16,17,18,19,20,21,22,23,24,25,26,27,28,29,30,31,32,33,34,35,36,37,38,39,40,41,42,43,44,45,46,47,48,49,50,51,52,53,54,55,56,57,58,59,60,61,62,63,64,65,66,67,68,69,70,71,72,73,74,75,76,77,78,79,80,81,82,83,84,85,86,87,88,89,90,91,92,93,94,95,96,97,98,99,100,101,102,103,104,105,106,107,108,109,110,111,112,113,114,115,116,117,118,119,120,121,122,123,124,125,126,127,128,129,130,131,132,133,134,135,136,137,138,139,140,141,142,143,144,145,146,147,148,149,150,151,152,153,154,155,156,157,158,159,160,161,162,163,164,165,166,167,168,169,170,171,172,173,174,175,176,177,178,179,180,181,182,183,184,185,186,187,188,189,190,191,192,193,194,195,196,197,198,199,200,201,202,203,204,205,206,207,208,209,210,211,212,213,214,215,216,217,218,219,220,221,222,223],"tree_info":[0,0,0,0,0,0,0,0,0,0,0,0,0,0,0,0,0,0,0,0,0,0,0,0,0,0,0,0,0,0,0,0,0,0,0,0,0,0,0,0,0,0,0,0,0,0,0,0,0,0,0,0,0,0,0,0,0,0,0,0,0,0,0,0,0,0,0,0,0,0,0,0,0,0,0,0,0,0,0,0,0,0,0,0,0,0,0,0,0,0,0,0,0,0,0,0,0,0,0,0,0,0,0,0,0,0,0,0,0,0,0,0,0,0,0,0,0,0,0,0,0,0,0,0,0,0,0,0,0,0,0,0,0,0,0,0,0,0,0,0,0,0,0,0,0,0,0,0,0,0,0,0,0,0,0,0,0,0,0,0,0,0,0,0,0,0,0,0,0,0,0,0,0,0,0,0,0,0,0,0,0,0,0,0,0,0,0,0,0,0,0,0,0,0,0,0,0,0,0,0,0,0,0,0,0,0,0,0,0,0,0,0,0,0,0,0,0,0,0,0,0,0,0],"trees":[{"base_weights":[-6.1480486E-4,-5.050204E-1,2.9197022E-1,-8.9217454E-1,-3.3236796E-1,1.0750739E-1,4.7584102E-1,-1.2259752E0,-7.8470886E-1,-4.778157E-1,-2.2206372E-1,-5.1478524E-4,2.0371158E-1,3.910879E-1,5.583877E-1,-1.443201E-1,-1.10862374E-1,-8.963998E-2,-6.9992915E-2,-5.32921E-2,-4.0723853E-2,-2.76464E-2,-1.43439E-2,-8.159723E-3,4.777141E-3,1.4326284E-2,2.6678901E-2,3.1770118E-2,4.324987E-2,5.0294E-2,5.826596E-2],"categories":[],"categories_nodes":[],"categories_segments":[],"categories_sizes":[],"default_left":[0,0,0,0,0,0,0,0,0,0,0,0,0,0,0,0,0,0,0,0,0,0,0,0,0,0,0,0,0,0,0],"id":0,"left_children":[1,3,5,7,9,11,13,15,17,19,21,23,25,27,29,-1,-1,-1,-1,-1,-1,-1,-1,-1,-1,-1,-1,-1,-1,-1,-1],"loss_changes":[6.9059883E3,1.1460352E3,1.00334033E3,1.8564307E2,1.8942517E2,1.5401707E2,1.0192261E2,2.4887207E1,3.392456E1,1.9030762E1,2.958435E1,2.8148022E1,2.990683E1,2.2717407E1,9.755127E0,0E0,0E0,0E0,0E0,0E0,0E0,0E0,0E0,0E0,0E0,0E0,0E0,0E0,0E0,0E0,0E0],"parents":[2147483647,0,0,1,1,2,2,3,3,4,4,5,5,6,6,7,7,8,8,9,9,10,10,11,11,12,12,13,13,14,14],"right_children":[2,4,6,8,10,12,14,16,18,20,22,24,26,28,30,-1,-1,-1,-1,-1,-1,-1,-1,-1,-1,-1,-1,-1,-1,-1,-1],"split_conditions":[3.027E0,2.513E0,3.437E0,2.104E0,2.783E0,3.23E0,3.635E0,1.835E0,2.306E0,2.661E0,1.202E1,9.43E0,1.177E1,9.97E0,3.736E0,-1.443201E-1,-1.10862374E-1,-8.963998E-2,-6.9992915E-2,-5.32921E-2,-4.0723853E-2,-2.76464E-2,-1.43439E-2,-8.159723E-3,4.777141E-3,1.4326284E-2,2.6678901E-2,3.1770118E-2,4.324987E-2,5.0294E-2,5.826596E-2],"split_indices":[1,1,1,1,1,1,1,1,1,1,6,6,6,6,1,0,0,0,0,0,0,0,0,0,0,0,0,0,0,0,0],"split_type":[0,0,0,0,0,0,0,0,0,0,0,0,0,0,0,0,0,0,0,0,0,0,0,0,0,0,0,0,0,0,0],"sum_hessian":[4.679E4,1.7179E4,2.9611E4,5.294E3,1.1885E4,1.4787E4,1.4824E4,1.283E3,4.011E3,5.118E3,6.767E3,6.958E3,7.829E3,7.327E3,7.497E3,3.7E2,9.13E2,1.476E3,2.535E3,2.563E3,2.555E3,3.815E3,2.952E3,2.609E3,4.349E3,4.208E3,3.621E3,3.038E3,4.289E3,3.104E3,4.393E3],"tree_param":{"num_deleted":"0","num_feature":"22","num_nodes":"31","size_leaf_vector":"1"}},{"base_weights":[1.2378924E-3,-6.0125344E-2,4.878809E-2,-4.8505947E-2,-1.3901219E-1,1.9251974E-2,8.8440366E-2,-6.71441E-2,1.3268682E-4,-8.334064E-2,-5.1490986E-1,2.0406935E-3,7.217273E-2,6.894799E-2,1.2693313E-1,-9.4063785E-3,-4.31446E-3,-5.176035E-3,1.1426091E-2,-6.436662E-3,-2.4298405E-2,-3.4366105E-2,-5.8915667E-2,8.3705236E-4,-7.7325134E-3,2.1841477E-3,1.7720966E-2,4.5759515E-3,8.525735E-3,1.0903846E-2,1.715454E-2],"categories":[],"categories_nodes":[],"categories_segments":[],"categories_sizes":[],"default_left":[0,0,0,0,0,0,0,0,0,0,0,0,0,0,0,0,0,0,0,0,0,0,0,0,0,0,0,0,0,0,0],"id":1,"left_children":[1,3,5,7,9,11,13,15,17,19,21,23,25,27,29,-1,-1,-1,-1,-1,-1,-1,-1,-1,-1,-1,-1,-1,-1,-1,-1],"loss_changes":[1.3667587E2,1.8415802E1,3.0750229E1,1.6278385E1,5.3478294E1,1.368581E1,8.107132E0,8.315399E0,3.0132788E1,6.147728E0,2.8086777E0,5.849025E0,1.957795E1,2.7460098E0,2.3831291E0,0E0,0E0,0E0,0E0,0E0,0E0,0E0,0E0,0E0,0E0,0E0,0E0,0E0,0E0,0E0,0E0],"parents":[2147483647,0,0,1,1,2,2,3,3,4,4,5,5,6,6,7,7,8,8,9,9,10,10,11,11,12,12,13,13,14,14],"right_children":[2,4,6,8,10,12,14,16,18,20,22,24,26,28,30,-1,-1,-1,-1,-1,-1,-1,-1,-1,-1,-1,-1,-1,-1,-1,-1],"split_conditions":[1.033E1,1E0,1.488E1,3E0,2.053E1,1E0,1.856E1,6.61E0,1E0,1.56E1,2.514E1,2.053E1,3E0,4.14E0,1E0,-9.4063785E-3,-4.31446E-3,-5.176035E-3,1.1426091E-2,-6.436662E-3,-2.4298405E-2,-3.4366105E-2,-5.8915667E-2,8.3705236E-4,-7.7325134E-3,2.1841477E-3,1.7720966E-2,4.5759515E-3,8.525735E-3,1.0903846E-2,1.715454E-2],"split_indices":[6,13,6,3,2,12,6,6,12,2,2,2,3,2,12,0,0,0,0,0,0,0,0,0,0,0,0,0,0,0,0],"split_type":[0,0,0,0,0,0,0,0,0,0,0,0,0,0,0,0,0,0,0,0,0,0,0,0,0,0,0,0,0,0,0],"sum_hessian":[4.6846E4,2.0437E4,2.6409E4,1.7833E4,2.604E3,1.516E4,1.1249E4,1.2917E4,4.916E3,2.273E3,3.31E2,1.1464E4,3.696E3,7.498E3,3.751E3,5.797E3,7.12E3,3.37E3,1.546E3,2.058E3,2.15E2,1.19E2,2.12E2,1.0633E4,8.31E2,2.536E3,1.16E3,3.337E3,4.161E3,2.821E3,9.3E2],"tree_param":{"num_deleted":"0","num_feature":"22","num_nodes":"31","size_leaf_vector":"1"}},{"base_weights":[-7.432722E-5,-4.4104624E-1,2.722759E-1,-7.5523674E-1,-2.6522216E-1,9.66913E-2,4.1887674E-1,-1.0368938E0,-6.440082E-1,-3.746592E-1,-1.639779E-1,1.3989915E-2,1.7897552E-1,3.1483626E-1,4.8381367E-1,-1.2415045E-1,-9.251279E-2,-7.237478E-2,-5.627347E-2,-4.297662E-2,-3.204853E-2,-2.0572131E-2,-9.281958E-3,-4.1701277E-3,6.174723E-3,1.0126069E-2,2.1462468E-2,2.3812225E-2,3.4215055E-2,4.3369856E-2,5.2401226E-2],"categories":[],"categories_nodes":[],"categories_segments":[],"categories_sizes":[],"default_left":[0,0,0,0,0,0,0,0,0,0,0,0,0,0,0,0,0,0,0,0,0,0,0,0,0,0,0,0,0,0,0],"id":2,"left_children":[1,3,5,7,9,11,13,15,17,19,21,23,25,27,29,-1,-1,-1,-1,-1,-1,-1,-1,-1,-1,-1,-1,-1,-1,-1,-1],"loss_changes":[5.6197026E3,9.851189E2,7.436062E2,1.9726245E2,1.2603088E2,8.927885E1,1.04977295E2,3.4617554E1,2.7766724E1,1.5305969E1,1.8148361E1,1.8084227E1,1.8991394E1,1.3375916E1,1.8466797E1,0E0,0E0,0E0,0E0,0E0,0E0,0E0,0E0,0E0,0E0,0E0,0E0,0E0,0E0,0E0,0E0],"parents":[2147483647,0,0,1,1,2,2,3,3,4,4,5,5,6,6,7,7,8,8,9,9,10,10,11,11,12,12,13,13,14,14],"right_children":[2,4,6,8,10,12,14,16,18,20,22,24,26,28,30,-1,-1,-1,-1,-1,-1,-1,-1,-1,-1,-1,-1,-1,-1,-1,-1],"split_conditions":[3.051E0,2.583E0,3.414E0,2.198E0,2.841E0,3.24E0,3.575E0,1.92E0,2.41E0,1.028E1,1.26E1,1.069E1,9.11E0,8.36E0,3.729E0,-1.2415045E-1,-9.251279E-2,-7.237478E-2,-5.627347E-2,-4.297662E-2,-3.204853E-2,-2.0572131E-2,-9.281958E-3,-4.1701277E-3,6.174723E-3,1.0126069E-2,2.1462468E-2,2.3812225E-2,3.4215055E-2,4.3369856E-2,5.2401226E-2],"split_indices":[1,1,1,1,1,1,1,1,1,6,6,6,6,6,1,0,0,0,0,0,0,0,0,0,0,0,0,0,0,0,0],"split_type":[0,0,0,0,0,0,0,0,0,0,0,0,0,0,0,0,0,0,0,0,0,0,0,0,0,0,0,0,0,0,0],"sum_hessian":[4.6788E4,1.7866E4,2.8922E4,6.406E3,1.146E4,1.3166E4,1.5756E4,1.807E3,4.599E3,5.498E3,5.962E3,6.577E3,6.589E3,6.067E3,9.689E3,5.4E2,1.267E3,2.029E3,2.57E3,2.422E3,3.076E3,3.611E3,2.351E3,3.034E3,3.543E3,2.245E3,4.344E3,1.889E3,4.178E3,5.121E3,4.568E3],"tree_param":{"num_deleted":"0","num_feature":"22","num_nodes":"31","size_leaf_vector":"1"}},{"base_weights":[-3.3011718E-4,-4.364273E-1,2.2385845E-1,-7.5842595E-1,-3.063453E-1,4.2565037E-2,3.6171713E-1,-1.0228192E0,-6.747181E-1,-4.2416131E-1,-2.14782E-1,-4.519844E-2,1.1547622E-1,2.665502E-1,4.3497035E-1,-1.2684457E-1,-9.519404E-2,-7.5104564E-2,-5.998272E-2,-4.781559E-2,-3.7543114E-2,-2.650317E-2,-1.5979782E-2,-1.0297856E-2,-2.9897384E-4,6.1442973E-3,1.5008505E-2,2.0840144E-2,3.0163363E-2,3.8054634E-2,4.6329357E-2],"categories":[],"categories_nodes":[],"categories_segments":[],"categories_sizes":[],"default_left":[0,0,0,0,0,0,0,0,0,0,0,0,0,0,0,0,0,0,0,0,0,0,0,0,0,0,0,0,0,0,0],"id":3,"left_children":[1,3,5,7,9,11,13,15,17,19,21,23,25,27,29,-1,-1,-1,-1,-1,-1,-1,-1,-1,-1,-1,-1,-1,-1,-1,-1],"loss_changes":[4.5762866E3,6.637395E2,7.7184326E2,9.761206E1,1.2102893E2,8.559891E1,1.21086426E2,1.1299805E1,1.7329102E1,1.1405334E1,1.7453674E1,1.4968294E1,1.3953712E1,1.576355E1,1.545166E1,0E0,0E0,0E0,0E0,0E0,0E0,0E0,0E0,0E0,0E0,0E0,0E0,0E0,0E0,0E0,0E0],"parents":[2147483647,0,0,1,1,2,2,3,3,4,4,5,5,6,6,7,7,8,8,9,9,10,10,11,11,12,12,13,13,14,14],"right_children":[2,4,6,8,10,12,14,16,18,20,22,24,26,28,30,-1,-1,-1,-1,-1,-1,-1,-1,-1,-1,-1,-1,-1,-1,-1,-1],"split_conditions":[2.987E0,2.464E0,3.367E0,2.07E0,2.742E0,3.171E0,3.569E0,1.707E0,2.287E0,2.593E0,2.87E0,3E0,3E0,3E0,3.692E0,-1.2684457E-1,-9.519404E-2,-7.5104564E-2,-5.998272E-2,-4.781559E-2,-3.7543114E-2,-2.650317E-2,-1.5979782E-2,-1.0297856E-2,-2.9897384E-4,6.1442973E-3,1.5008505E-2,2.0840144E-2,3.0163363E-2,3.8054634E-2,4.6329357E-2],"split_indices":[1,1,1,1,1,1,1,1,1,1,1,0,0,0,1,0,0,0,0,0,0,0,0,0,0,0,0,0,0,0,0],"split_type":[0,0,0,0,0,0,0,0,0,0,0,0,0,0,0,0,0,0,0,0,0,0,0,0,0,0,0,0,0,0,0],"sum_hessian":[4.6802E4,1.5893E4,3.0909E4,4.568E3,1.1325E4,1.3357E4,1.7552E4,1.091E3,3.477E3,4.943E3,6.382E3,6.051E3,7.306E3,7.646E3,9.906E3,1.82E2,9.09E2,1.472E3,2.005E3,2.016E3,2.927E3,3.12E3,3.262E3,2.496E3,3.555E3,3.016E3,4.29E3,3.228E3,4.418E3,4.203E3,5.703E3],"tree_param":{"num_deleted":"0","num_feature":"22","num_nodes":"31","size_leaf_vector":"1"}},{"base_weights":[-3.5368622E-4,-3.4520784E-1,2.3101848E-1,-6.1675674E-1,-2.0548314E-1,1.05284415E-1,3.5830882E-1,-8.475115E-1,-5.2246565E-1,-2.9528826E-1,-1.1439985E-1,3.8649846E-2,1.8097752E-1,3.0706257E-1,4.2097196E-1,-1.016332E-1,-7.530776E-2,-5.894136E-2,-4.5472194E-2,-3.5200745E-2,-2.4704851E-2,-1.4991791E-2,-4.289306E-3,-2.7470957E-3,7.135691E-3,1.1159721E-2,2.1010099E-2,2.6631383E-2,3.6129892E-2,3.5915285E-2,4.2897005E-2],"categories":[],"categories_nodes":[],"categories_segments":[],"categories_sizes":[],"default_left":[0,0,0,0,0,0,0,0,0,0,0,0,0,0,0,0,0,0,0,0,0,0,0,0,0,0,0,0,0,0,0],"id":4,"left_children":[1,3,5,7,9,11,13,15,17,19,21,23,25,27,29,-1,-1,-1,-1,-1,-1,-1,-1,-1,-1,-1,-1,-1,-1,-1,-1],"loss_changes":[3.7298774E3,7.1075684E2,4.4687695E2,1.3594751E2,1.00714966E2,7.0644806E1,4.3276123E1,2.4380371E1,1.8891602E1,1.611383E1,1.619281E1,1.6948225E1,1.38372345E1,1.5633118E1,3.6313477E0,0E0,0E0,0E0,0E0,0E0,0E0,0E0,0E0,0E0,0E0,0E0,0E0,0E0,0E0,0E0,0E0],"parents":[2147483647,0,0,1,1,2,2,3,3,4,4,5,5,6,6,7,7,8,8,9,9,10,10,11,11,12,12,13,13,14,14],"right_children":[2,4,6,8,10,12,14,16,18,20,22,24,26,28,30,-1,-1,-1,-1,-1,-1,-1,-1,-1,-1,-1,-1,-1,-1,-1,-1],"split_conditions":[3.08E0,2.583E0,3.462E0,2.198E0,2.87E0,3.289E0,3.675E0,1.92E0,2.41E0,2.718E0,1.323E1,9E0,8.77E0,1.274E1,6.76E0,-1.016332E-1,-7.530776E-2,-5.894136E-2,-4.5472194E-2,-3.5200745E-2,-2.4704851E-2,-1.4991791E-2,-4.289306E-3,-2.7470957E-3,7.135691E-3,1.1159721E-2,2.1010099E-2,2.6631383E-2,3.6129892E-2,3.5915285E-2,4.2897005E-2],"split_indices":[1,1,1,1,1,1,1,1,1,1,6,6,6,6,6,0,0,0,0,0,0,0,0,0,0,0,0,0,0,0,0],"split_type":[0,0,0,0,0,0,0,0,0,0,0,0,0,0,0,0,0,0,0,0,0,0,0,0,0,0,0,0,0,0,0],"sum_hessian":[4.6742E4,1.8771E4,2.7971E4,6.372E3,1.2399E4,1.4079E4,1.3892E4,1.841E3,4.531E3,6.233E3,6.166E3,7.5E3,6.579E3,7.66E3,6.232E3,5.61E2,1.28E3,1.997E3,2.534E3,2.581E3,3.652E3,4.004E3,2.162E3,2.51E3,4.99E3,2.146E3,4.433E3,4.769E3,2.891E3,1.311E3,4.921E3],"tree_param":{"num_deleted":"0","num_feature":"22","num_nodes":"31","size_leaf_vector":"1"}},{"base_weights":[2.9147964E-4,-3.4015176E-1,1.907069E-1,-6.104764E-1,-2.3350367E-1,6.0257476E-2,3.083066E-1,-8.134382E-1,-5.34743E-1,-3.351189E-1,-1.5880698E-1,-2.2738406E-2,1.15619846E-1,2.3673096E-1,3.5969135E-1,-9.649112E-2,-7.3354274E-2,-5.784293E-2,-4.6072125E-2,-3.8151562E-2,-2.7937822E-2,-2.2651527E-2,-1.2304728E-2,-5.8876104E-3,2.917277E-3,7.990207E-3,1.7343294E-2,2.0465367E-2,2.9381495E-2,3.2423194E-2,3.8858064E-2],"categories":[],"categories_nodes":[],"categories_segments":[],"categories_sizes":[],"default_left":[0,0,0,0,0,0,0,0,0,0,0,0,0,0,0,0,0,0,0,0,0,0,0,0,0,0,0,0,0,0,0],"id":5,"left_children":[1,3,5,7,9,11,13,15,17,19,21,23,25,27,29,-1,-1,-1,-1,-1,-1,-1,-1,-1,-1,-1,-1,-1,-1,-1,-1],"loss_changes":[3.0334624E3,4.823037E2,4.598241E2,7.0231445E1,9.052185E1,6.557828E1,5.695459E1,1.1027039E1,1.0161072E1,1.2463562E1,1.6141663E1,1.107971E1,1.7399223E1,1.087854E1,8.410034E0,0E0,0E0,0E0,0E0,0E0,0E0,0E0,0E0,0E0,0E0,0E0,0E0,0E0,0E0,0E0,0E0],"parents":[2147483647,0,0,1,1,2,2,3,3,4,4,5,5,6,6,7,7,8,8,9,9,10,10,11,11,12,12,13,13,14,14],"right_children":[2,4,6,8,10,12,14,16,18,20,22,24,26,28,30,-1,-1,-1,-1,-1,-1,-1,-1,-1,-1,-1,-1,-1,-1,-1,-1],"split_conditions":[3.016E0,2.475E0,3.414E0,2.104E0,2.759E0,3.185E0,3.59E0,1.835E0,1.198E1,1.105E1,8.66E0,1.244E1,1.311E1,1.355E1,3.742E0,-9.649112E-2,-7.3354274E-2,-5.784293E-2,-4.6072125E-2,-3.8151562E-2,-2.7937822E-2,-2.2651527E-2,-1.2304728E-2,-5.8876104E-3,2.917277E-3,7.990207E-3,1.7343294E-2,2.0465367E-2,2.9381495E-2,3.2423194E-2,3.8858064E-2],"split_indices":[1,1,1,1,1,1,1,1,6,6,6,6,6,6,1,0,0,0,0,0,0,0,0,0,0,0,0,0,0,0,0],"split_type":[0,0,0,0,0,0,0,0,0,0,0,0,0,0,0,0,0,0,0,0,0,0,0,0,0,0,0,0,0,0,0],"sum_hessian":[4.6796E4,1.6782E4,3.0014E4,4.742E3,1.204E4,1.4237E4,1.5777E4,1.28E3,3.462E3,5.09E3,6.95E3,5.685E3,8.552E3,6.609E3,9.168E3,3.63E2,9.17E2,1.921E3,1.541E3,2.506E3,2.584E3,2.223E3,4.727E3,3.348E3,2.337E3,5.465E3,3.087E3,4.518E3,2.091E3,4.922E3,4.246E3],"tree_param":{"num_deleted":"0","num_feature":"22","num_nodes":"31","size_leaf_vector":"1"}},{"base_weights":[-6.7799375E-4,-3.295286E-1,1.603385E-1,-5.6619877E-1,-2.3519105E-1,1.6858855E-2,2.5853303E-1,-7.8343016E-1,-5.0749743E-1,-3.2562795E-1,-1.7482302E-1,-4.9992584E-2,6.43588E-2,1.7559646E-1,3.1158638E-1,-9.559094E-2,-7.2199844E-2,-5.6568597E-2,-4.3964237E-2,-3.6761913E-2,-2.8782092E-2,-2.240147E-2,-1.3419767E-2,-1.0314445E-2,-1.069193E-3,1.6559314E-3,9.617688E-3,1.2505018E-2,2.0709299E-2,2.7422763E-2,3.4136306E-2],"categories":[],"categories_nodes":[],"categories_segments":[],"categories_sizes":[],"default_left":[0,0,0,0,0,0,0,0,0,0,0,0,0,0,0,0,0,0,0,0,0,0,0,0,0,0,0,0,0,0,0],"id":6,"left_children":[1,3,5,7,9,11,13,15,17,19,21,23,25,27,29,-1,-1,-1,-1,-1,-1,-1,-1,-1,-1,-1,-1,-1,-1,-1,-1],"loss_changes":[2.4815352E3,3.425044E2,4.4269122E2,5.3375854E1,5.9286865E1,4.0634594E1,8.127258E1,5.1760254E0,1.2191895E1,5.784088E0,1.280806E1,1.115618E1,1.1666719E1,1.1717575E1,1.2065186E1,0E0,0E0,0E0,0E0,0E0,0E0,0E0,0E0,0E0,0E0,0E0,0E0,0E0,0E0,0E0,0E0],"parents":[2147483647,0,0,1,1,2,2,3,3,4,4,5,5,6,6,7,7,8,8,9,9,10,10,11,11,12,12,13,13,14,14],"right_children":[2,4,6,8,10,12,14,16,18,20,22,24,26,28,30,-1,-1,-1,-1,-1,-1,-1,-1,-1,-1,-1,-1,-1,-1,-1,-1],"split_conditions":[2.969E0,2.45E0,3.338E0,2.033E0,2.709E0,3.134E0,3.531E0,1.707E0,2.287E0,3E0,3E0,3E0,3E0,3E0,3.698E0,-9.559094E-2,-7.2199844E-2,-5.6568597E-2,-4.3964237E-2,-3.6761913E-2,-2.8782092E-2,-2.240147E-2,-1.3419767E-2,-1.0314445E-2,-1.069193E-3,1.6559314E-3,9.617688E-3,1.2505018E-2,2.0709299E-2,2.7422763E-2,3.4136306E-2],"split_indices":[1,1,1,1,1,1,1,1,1,0,0,0,0,0,1,0,0,0,0,0,0,0,0,0,0,0,0,0,0,0,0],"split_type":[0,0,0,0,0,0,0,0,0,0,0,0,0,0,0,0,0,0,0,0,0,0,0,0,0,0,0,0,0,0,0],"sum_hessian":[4.6858E4,1.5405E4,3.1453E4,4.384E3,1.1021E4,1.2787E4,1.8666E4,9.24E2,3.46E3,4.399E3,6.622E3,5.297E3,7.49E3,7.296E3,1.137E4,1.85E2,7.39E2,1.635E3,1.825E3,1.788E3,2.611E3,2.78E3,3.842E3,2.19E3,3.107E3,3.106E3,4.384E3,3.059E3,4.237E3,5.87E3,5.5E3],"tree_param":{"num_deleted":"0","num_feature":"22","num_nodes":"31","size_leaf_vector":"1"}},{"base_weights":[-4.1682515E-4,-2.5100905E-1,1.7140682E-1,-4.5322055E-1,-1.4793621E-1,9.0016186E-2,2.774217E-1,-6.2621397E-1,-3.8352564E-1,-2.1655487E-1,-8.125788E-2,3.0844696E-2,1.4393584E-1,2.4253106E-1,3.0971417E-1,-7.535263E-2,-5.5606697E-2,-4.2385805E-2,-3.142629E-2,-2.7671456E-2,-1.7988592E-2,-1.0529073E-2,-1.1724287E-3,3.0119612E-4,9.051996E-3,1.0416432E-2,1.8705852E-2,1.5945569E-2,2.587816E-2,2.6167778E-2,3.2087855E-2],"categories":[],"categories_nodes":[],"categories_segments":[],"categories_sizes":[],"default_left":[0,0,0,0,0,0,0,0,0,0,0,0,0,0,0,0,0,0,0,0,0,0,0,0,0,0,0,0,0,0,0],"id":7,"left_children":[1,3,5,7,9,11,13,15,17,19,21,23,25,27,29,-1,-1,-1,-1,-1,-1,-1,-1,-1,-1,-1,-1,-1,-1,-1,-1],"loss_changes":[2.0184603E3,3.964226E2,2.3927527E2,7.5644775E1,5.7316193E1,4.99208E1,1.2602966E1,1.3095764E1,1.248761E1,1.275415E1,1.1229145E1,1.260193E1,1.3921112E1,8.757446E0,3.3501587E0,0E0,0E0,0E0,0E0,0E0,0E0,0E0,0E0,0E0,0E0,0E0,0E0,0E0,0E0,0E0,0E0],"parents":[2147483647,0,0,1,1,2,2,3,3,4,4,5,5,6,6,7,7,8,8,9,9,10,10,11,11,12,12,13,13,14,14],"right_children":[2,4,6,8,10,12,14,16,18,20,22,24,26,28,30,-1,-1,-1,-1,-1,-1,-1,-1,-1,-1,-1,-1,-1,-1,-1,-1],"split_conditions":[3.086E0,2.583E0,3.511E0,2.198E0,2.87E0,3.295E0,3.675E0,1.92E0,1.223E1,8.88E0,1.433E1,1.399E1,1.177E1,6.76E0,7.87E0,-7.535263E-2,-5.5606697E-2,-4.2385805E-2,-3.142629E-2,-2.7671456E-2,-1.7988592E-2,-1.0529073E-2,-1.1724287E-3,3.0119612E-4,9.051996E-3,1.0416432E-2,1.8705852E-2,1.5945569E-2,2.587816E-2,2.6167778E-2,3.2087855E-2],"split_indices":[1,1,1,1,1,1,1,1,6,6,6,6,6,6,6,0,0,0,0,0,0,0,0,0,0,0,0,0,0,0,0],"split_type":[0,0,0,0,0,0,0,0,0,0,0,0,0,0,0,0,0,0,0,0,0,0,0,0,0,0,0,0,0,0,0],"sum_hessian":[4.6873E4,1.907E4,2.7803E4,6.432E3,1.2638E4,1.5738E4,1.2065E4,1.838E3,4.594E3,6.215E3,6.423E3,7.519E3,8.219E3,5.828E3,6.237E3,5.53E2,1.285E3,2.642E3,1.952E3,2.124E3,4.091E3,4.671E3,1.752E3,5.187E3,2.332E3,4.513E3,3.706E3,1.187E3,4.641E3,1.702E3,4.535E3],"tree_param":{"num_deleted":"0","num_feature":"22","num_nodes":"31","size_leaf_vector":"1"}},{"base_weights":[-2.8918858E-4,-2.6457042E-1,1.3304393E-1,-4.5607248E-1,-1.8512371E-1,2.3283388E-2,2.1728133E-1,-6.17109E-1,-4.0469295E-1,-2.5624117E-1,-1.3205427E-1,-3.3458266E-2,6.469795E-2,1.59782E-1,2.618273E-1,-7.972082E-2,-5.6836095E-2,-4.3360222E-2,-3.1778023E-2,-2.8345933E-2,-1.9173628E-2,-1.745326E-2,-9.002931E-3,-9.374657E-3,-7.166066E-4,9.002805E-4,9.181586E-3,1.1397268E-2,1.8854953E-2,2.2401683E-2,2.824093E-2],"categories":[],"categories_nodes":[],"categories_segments":[],"categories_sizes":[],"default_left":[0,0,0,0,0,0,0,0,0,0,0,0,0,0,0,0,0,0,0,0,0,0,0,0,0,0,0,0,0,0,0],"id":8,"left_children":[1,3,5,7,9,11,13,15,17,19,21,23,25,27,29,-1,-1,-1,-1,-1,-1,-1,-1,-1,-1,-1,-1,-1,-1,-1,-1],"loss_changes":[1.6478857E3,2.3747083E2,2.8691327E2,3.6048157E1,4.1188385E1,3.1785137E1,4.4269165E1,5.7061157E0,8.780151E0,8.328125E0,1.1225388E1,9.0106735E0,1.2228035E1,1.0195816E1,7.546509E0,0E0,0E0,0E0,0E0,0E0,0E0,0E0,0E0,0E0,0E0,0E0,0E0,0E0,0E0,0E0,0E0],"parents":[2147483647,0,0,1,1,2,2,3,3,4,4,5,5,6,6,7,7,8,8,9,9,10,10,11,11,12,12,13,13,14,14],"right_children":[2,4,6,8,10,12,14,16,18,20,22,24,26,28,30,-1,-1,-1,-1,-1,-1,-1,-1,-1,-1,-1,-1,-1,-1,-1,-1],"split_conditions":[2.981E0,2.464E0,3.367E0,2.07E0,2.733E0,3.155E0,3.569E0,1.707E0,1.382E1,1.333E1,1.069E1,8.23E0,9.11E0,3E0,3E0,-7.972082E-2,-5.6836095E-2,-4.3360222E-2,-3.1778023E-2,-2.8345933E-2,-1.9173628E-2,-1.745326E-2,-9.002931E-3,-9.374657E-3,-7.166066E-4,9.002805E-4,9.181586E-3,1.1397268E-2,1.8854953E-2,2.2401683E-2,2.824093E-2],"split_indices":[1,1,1,1,1,1,1,1,6,6,6,6,6,0,0,0,0,0,0,0,0,0,0,0,0,0,0,0,0,0,0],"split_type":[0,0,0,0,0,0,0,0,0,0,0,0,0,0,0,0,0,0,0,0,0,0,0,0,0,0,0,0,0,0,0],"sum_hessian":[4.6757E4,1.5683E4,3.1074E4,4.591E3,1.1092E4,1.3502E4,1.7572E4,1.1E3,3.491E3,4.725E3,6.367E3,5.68E3,7.822E3,7.689E3,9.883E3,1.79E2,9.21E2,2.418E3,1.073E3,3.103E3,1.622E3,2.995E3,3.372E3,1.672E3,4.008E3,2.674E3,5.148E3,3.239E3,4.45E3,4.186E3,5.697E3],"tree_param":{"num_deleted":"0","num_feature":"22","num_nodes":"31","size_leaf_vector":"1"}},{"base_weights":[1.845347E-4,-2.4391295E-1,1.1692192E-1,-4.448392E-1,-1.8402652E-1,1.1194431E-2,1.9057389E-1,-5.951779E-1,-4.0370774E-1,-2.6430148E-1,-1.3593215E-1,-3.7803993E-2,4.7312748E-2,1.2581705E-1,2.2720203E-1,-7.132056E-2,-5.3941E-2,-4.2213652E-2,-2.9291354E-2,-3.0762112E-2,-2.2082295E-2,-1.6746689E-2,-8.935067E-3,-8.634919E-3,-1.8404944E-4,1.544824E-3,9.012974E-3,6.656221E-3,1.4931507E-2,1.8572457E-2,2.462032E-2],"categories":[],"categories_nodes":[],"categories_segments":[],"categories_sizes":[],"default_left":[0,0,0,0,0,0,0,0,0,0,0,0,0,0,0,0,0,0,0,0,0,0,0,0,0,0,0,0,0,0,0],"id":9,"left_children":[1,3,5,7,9,11,13,15,17,19,21,23,25,27,29,-1,-1,-1,-1,-1,-1,-1,-1,-1,-1,-1,-1,-1,-1,-1,-1],"loss_changes":[1.3328279E3,1.8092981E2,2.4613043E2,1.9540222E1,4.4331757E1,2.303482E1,4.3612244E1,1.9874878E0,5.906769E0,7.4286804E0,1.0821671E1,9.70792E0,1.0315084E1,9.771057E0,9.689331E0,0E0,0E0,0E0,0E0,0E0,0E0,0E0,0E0,0E0,0E0,0E0,0E0,0E0,0E0,0E0,0E0],"parents":[2147483647,0,0,1,1,2,2,3,3,4,4,5,5,6,6,7,7,8,8,9,9,10,10,11,11,12,12,13,13,14,14],"right_children":[2,4,6,8,10,12,14,16,18,20,22,24,26,28,30,-1,-1,-1,-1,-1,-1,-1,-1,-1,-1,-1,-1,-1,-1,-1,-1],"split_conditions":[2.962E0,2.379E0,3.338E0,1.984E0,2.661E0,3.134E0,3.516E0,1.707E0,1.565E1,1.049E1,1.202E1,3E0,1.244E1,8.36E0,9.48E0,-7.132056E-2,-5.3941E-2,-4.2213652E-2,-2.9291354E-2,-3.0762112E-2,-2.2082295E-2,-1.6746689E-2,-8.935067E-3,-8.634919E-3,-1.8404944E-4,1.544824E-3,9.012974E-3,6.656221E-3,1.4931507E-2,1.8572457E-2,2.462032E-2],"split_indices":[1,1,1,1,1,1,1,1,6,6,6,0,6,6,6,0,0,0,0,0,0,0,0,0,0,0,0,0,0,0,0],"split_type":[0,0,0,0,0,0,0,0,0,0,0,0,0,0,0,0,0,0,0,0,0,0,0,0,0,0,0,0,0,0,0],"sum_hessian":[4.6779E4,1.5129E4,3.165E4,3.466E3,1.1663E4,1.3005E4,1.8645E4,7.33E2,2.733E3,4.355E3,7.308E3,5.499E3,7.506E3,6.754E3,1.1891E4,1.84E2,5.49E2,2.199E3,5.34E2,1.959E3,2.396E3,4.143E3,3.165E3,2.283E3,3.216E3,4.398E3,3.108E3,2.094E3,4.66E3,4.442E3,7.449E3],"tree_param":{"num_deleted":"0","num_feature":"22","num_nodes":"31","size_leaf_vector":"1"}},{"base_weights":[-3.0644055E-4,-2.3501483E-1,9.8797545E-2,-4.0841904E-1,-1.8107386E-1,-4.100694E-3,1.6610198E-1,-5.413427E-1,-3.7008545E-1,-2.4061383E-1,-1.3876659E-1,-4.863188E-2,2.7411506E-2,1.0917707E-1,2.0422249E-1,-6.5315545E-2,-4.9006365E-2,-4.121157E-2,-3.271699E-2,-2.8436726E-2,-2.0349279E-2,-1.8228658E-2,-1.0444286E-2,-8.37851E-3,-1.0378424E-3,-8.494928E-4,5.9967944E-3,6.7359284E-3,1.3601173E-2,1.7857749E-2,2.3678478E-2],"categories":[],"categories_nodes":[],"categories_segments":[],"categories_sizes":[],"default_left":[0,0,0,0,0,0,0,0,0,0,0,0,0,0,0,0,0,0,0,0,0,0,0,0,0,0,0,0,0,0,0],"id":10,"left_children":[1,3,5,7,9,11,13,15,17,19,21,23,25,27,29,-1,-1,-1,-1,-1,-1,-1,-1,-1,-1,-1,-1,-1,-1,-1,-1],"loss_changes":[1.0866095E3,1.2869116E2,2.2766171E2,1.5014954E1,2.6010254E1,1.824406E1,4.2553833E1,1.5974274E0,3.3076477E0,6.2849426E0,8.907173E0,7.3349705E0,9.228316E0,9.066795E0,9.10199E0,0E0,0E0,0E0,0E0,0E0,0E0,0E0,0E0,0E0,0E0,0E0,0E0,0E0,0E0,0E0,0E0],"parents":[2147483647,0,0,1,1,2,2,3,3,4,4,5,5,6,6,7,7,8,8,9,9,10,10,11,11,12,12,13,13,14,14],"right_children":[2,4,6,8,10,12,14,16,18,20,22,24,26,28,30,-1,-1,-1,-1,-1,-1,-1,-1,-1,-1,-1,-1,-1,-1,-1,-1],"split_conditions":[2.915E0,2.361E0,3.304E0,1.984E0,2.653E0,3E0,3.516E0,1.707E0,3E0,3E0,3E0,3.128E0,3.117E0,3E0,3.729E0,-6.5315545E-2,-4.9006365E-2,-4.121157E-2,-3.271699E-2,-2.8436726E-2,-2.0349279E-2,-1.8228658E-2,-1.0444286E-2,-8.37851E-3,-1.0378424E-3,-8.494928E-4,5.9967944E-3,6.7359284E-3,1.3601173E-2,1.7857749E-2,2.3678478E-2],"split_indices":[1,1,1,1,1,0,1,1,0,0,0,1,1,0,1,0,0,0,0,0,0,0,0,0,0,0,0,0,0,0,0],"split_type":[0,0,0,0,0,0,0,0,0,0,0,0,0,0,0,0,0,0,0,0,0,0,0,0,0,0,0,0,0,0,0],"sum_hessian":[4.6703E4,1.387E4,3.2833E4,3.282E3,1.0588E4,1.2974E4,1.9859E4,7.22E2,2.56E3,4.38E3,6.208E3,5.398E3,7.576E3,7.984E3,1.1875E4,1.77E2,5.45E2,1.101E3,1.459E3,1.79E3,2.59E3,2.547E3,3.661E3,2.736E3,2.662E3,3.625E3,3.951E3,3.338E3,4.646E3,7.305E3,4.57E3],"tree_param":{"num_deleted":"0","num_feature":"22","num_nodes":"31","size_leaf_vector":"1"}},{"base_weights":[-4.2648517E-4,-1.6808489E-1,1.1222717E-1,-2.9911482E-1,-9.764827E-2,4.880778E-2,1.7483714E-1,-4.1144413E-1,-2.4907596E-1,-1.5221778E-1,-5.8145307E-2,1.3193586E-2,8.423807E-2,1.4561482E-1,2.0600049E-1,-5.3190816E-2,-3.7610773E-2,-2.9725708E-2,-2.099972E-2,-1.9966625E-2,-1.2342802E-2,-7.981728E-3,4.1245665E-5,-5.876557E-3,3.0217401E-3,3.5364435E-3,1.0797253E-2,1.0162954E-2,1.732098E-2,1.5062134E-2,2.1265876E-2],"categories":[],"categories_nodes":[],"categories_segments":[],"categories_sizes":[],"default_left":[0,0,0,0,0,0,0,0,0,0,0,0,0,0,0,0,0,0,0,0,0,0,0,0,0,0,0,0,0,0,0],"id":11,"left_children":[1,3,5,7,9,11,13,15,17,19,21,23,25,27,29,-1,-1,-1,-1,-1,-1,-1,-1,-1,-1,-1,-1,-1,-1,-1,-1],"loss_changes":[8.8588965E2,1.7332147E2,1.1097812E2,3.5802917E1,2.609616E1,1.7435764E1,1.2225769E1,5.932831E0,7.71756E0,6.406189E0,9.705799E0,8.8475685E0,8.30584E0,8.897491E0,2.9320374E0,0E0,0E0,0E0,0E0,0E0,0E0,0E0,0E0,0E0,0E0,0E0,0E0,0E0,0E0,0E0,0E0],"parents":[2147483647,0,0,1,1,2,2,3,3,4,4,5,5,6,6,7,7,8,8,9,9,10,10,11,11,12,12,13,13,14,14],"right_children":[2,4,6,8,10,12,14,16,18,20,22,24,26,28,30,-1,-1,-1,-1,-1,-1,-1,-1,-1,-1,-1,-1,-1,-1,-1,-1],"split_conditions":[3.08E0,2.593E0,3.457E0,2.22E0,2.834E0,3.274E0,3.657E0,1.835E0,9.97E0,8.88E0,1.433E1,6.61E0,9.16E0,3E0,5.83E0,-5.3190816E-2,-3.7610773E-2,-2.9725708E-2,-2.099972E-2,-1.9966625E-2,-1.2342802E-2,-7.981728E-3,4.1245665E-5,-5.876557E-3,3.0217401E-3,3.5364435E-3,1.0797253E-2,1.0162954E-2,1.732098E-2,1.5062134E-2,2.1265876E-2],"split_indices":[1,1,1,1,1,1,1,1,6,6,6,6,6,0,6,0,0,0,0,0,0,0,0,0,0,0,0,0,0,0,0],"split_type":[0,0,0,0,0,0,0,0,0,0,0,0,0,0,0,0,0,0,0,0,0,0,0,0,0,0,0,0,0,0,0],"sum_hessian":[4.6897E4,1.8853E4,2.8044E4,6.582E3,1.2271E4,1.3946E4,1.4098E4,2.016E3,4.566E3,5.134E3,7.137E3,6.979E3,6.967E3,7.306E3,6.792E3,3.63E2,1.653E3,1.826E3,2.74E3,1.76E3,3.374E3,5.151E3,1.986E3,1.332E3,5.647E3,2.423E3,4.544E3,3.066E3,4.24E3,1.099E3,5.693E3],"tree_param":{"num_deleted":"0","num_feature":"22","num_nodes":"31","size_leaf_vector":"1"}},{"base_weights":[-3.3497915E-4,-1.9047529E-1,8.126489E-2,-3.0981112E-1,-1.3626696E-1,3.4427748E-3,1.3974561E-1,-3.8975057E-1,-2.6080376E-1,-1.7491572E-1,-1.0144698E-1,-6.425821E-2,1.9758994E-2,1.0540025E-1,1.7791463E-1,-4.555298E-2,-3.369099E-2,-2.8698234E-2,-1.9619744E-2,-2.2772435E-2,-1.4876181E-2,-1.4166097E-2,-6.9603543E-3,-4.593095E-3,-1.658647E-2,-9.4966305E-4,5.4557775E-3,8.044067E-3,1.5276045E-2,1.5087854E-2,1.9936755E-2],"categories":[],"categories_nodes":[],"categories_segments":[],"categories_sizes":[],"default_left":[0,0,0,0,0,0,0,0,0,0,0,0,0,0,0,0,0,0,0,0,0,0,0,0,0,0,0,0,0,0,0],"id":12,"left_children":[1,3,5,7,9,11,13,15,17,19,21,23,25,27,29,-1,-1,-1,-1,-1,-1,-1,-1,-1,-1,-1,-1,-1,-1,-1,-1],"loss_changes":[7.257601E2,9.010016E1,1.4865538E2,1.5969727E1,1.2539566E1,1.5447367E1,2.3982056E1,4.2263794E0,4.270508E0,5.459076E0,6.30373E0,4.6072187E0,1.1960266E1,1.1210968E1,4.721527E0,0E0,0E0,0E0,0E0,0E0,0E0,0E0,0E0,0E0,0E0,0E0,0E0,0E0,0E0,0E0,0E0],"parents":[2147483647,0,0,1,1,2,2,3,3,4,4,5,5,6,6,7,7,8,8,9,9,10,10,11,11,12,12,13,13,14,14],"right_children":[2,4,6,8,10,12,14,16,18,20,22,24,26,28,30,-1,-1,-1,-1,-1,-1,-1,-1,-1,-1,-1,-1,-1,-1,-1,-1],"split_conditions":[2.922E0,2.45E0,3.338E0,2.171E0,2.718E0,6.61E0,3.6E0,9.76E0,1.344E1,8.23E0,3E0,1E0,3.166E0,1.355E1,1.12E1,-4.555298E-2,-3.369099E-2,-2.8698234E-2,-1.9619744E-2,-2.2772435E-2,-1.4876181E-2,-1.4166097E-2,-6.9603543E-3,-4.593095E-3,-1.658647E-2,-9.4966305E-4,5.4557775E-3,8.044067E-3,1.5276045E-2,1.5087854E-2,1.9936755E-2],"split_indices":[1,1,1,1,1,6,1,6,6,6,0,13,1,6,6,0,0,0,0,0,0,0,0,0,0,0,0,0,0,0,0],"split_type":[0,0,0,0,0,0,0,0,0,0,0,0,0,0,0,0,0,0,0,0,0,0,0,0,0,0,0,0,0,0,0],"sum_hessian":[4.6763E4,1.4048E4,3.2715E4,4.377E3,9.671E3,1.4049E4,1.8666E4,1.648E3,2.729E3,4.559E3,5.112E3,2.708E3,1.1341E4,9.85E3,8.816E3,6.35E2,1.013E3,1.803E3,9.26E2,1.334E3,3.225E3,2.126E3,2.986E3,2.331E3,3.77E2,6.189E3,5.152E3,6.692E3,3.158E3,4.427E3,4.389E3],"tree_param":{"num_deleted":"0","num_feature":"22","num_nodes":"31","size_leaf_vector":"1"}},{"base_weights":[-4.735686E-4,-1.6294892E-1,7.725141E-2,-2.6398087E-1,-1.0861813E-1,1.1463389E-2,1.2999094E-1,-3.5849708E-1,-2.2808146E-1,-1.3855635E-1,-7.095713E-2,-3.2534776E-3,8.2525805E-2,9.230394E-2,1.5536043E-1,-4.8958696E-2,-3.3109408E-2,-2.4207568E-2,-1.4211198E-2,-1.582985E-2,-8.272687E-3,-9.180355E-3,-1.5682653E-3,-2.2652047E-3,4.743175E-3,1.4594947E-3,9.860836E-3,3.0872559E-3,1.0738313E-2,1.0249745E-2,1.6538268E-2],"categories":[],"categories_nodes":[],"categories_segments":[],"categories_sizes":[],"default_left":[0,0,0,0,0,0,0,0,0,0,0,0,0,0,0,0,0,0,0,0,0,0,0,0,0,0,0,0,0,0,0],"id":13,"left_children":[1,3,5,7,9,11,13,15,17,19,21,23,25,27,29,-1,-1,-1,-1,-1,-1,-1,-1,-1,-1,-1,-1,-1,-1,-1,-1],"loss_changes":[5.9284326E2,8.275485E1,1.0988971E2,1.693457E1,1.0796745E1,1.4917614E1,1.6404755E1,2.9197693E0,5.0422516E0,6.2168884E0,5.2164345E0,1.1831494E1,2.7207336E0,7.0146675E0,6.291519E0,0E0,0E0,0E0,0E0,0E0,0E0,0E0,0E0,0E0,0E0,0E0,0E0,0E0,0E0,0E0,0E0],"parents":[2147483647,0,0,1,1,2,2,3,3,4,4,5,5,6,6,7,7,8,8,9,9,10,10,11,11,12,12,13,13,14,14],"right_children":[2,4,6,8,10,12,14,16,18,20,22,24,26,28,30,-1,-1,-1,-1,-1,-1,-1,-1,-1,-1,-1,-1,-1,-1,-1,-1],"split_conditions":[2.962E0,2.513E0,3.367E0,2.142E0,2.797E0,1.616E1,3.555E0,1.707E0,1.61E1,1.41E1,3E0,3E0,2E0,2E0,6.61E0,-4.8958696E-2,-3.3109408E-2,-2.4207568E-2,-1.4211198E-2,-1.582985E-2,-8.272687E-3,-9.180355E-3,-1.5682653E-3,-2.2652047E-3,4.743175E-3,1.4594947E-3,9.860836E-3,3.0872559E-3,1.0738313E-2,1.0249745E-2,1.6538268E-2],"split_indices":[1,1,1,1,1,6,1,1,6,6,3,3,0,0,6,0,0,0,0,0,0,0,0,0,0,0,0,0,0,0,0],"split_type":[0,0,0,0,0,0,0,0,0,0,0,0,0,0,0,0,0,0,0,0,0,0,0,0,0,0,0,0,0,0,0],"sum_hessian":[4.6932E4,1.5193E4,3.1739E4,5.301E3,9.892E3,1.4137E4,1.7602E4,1.444E3,3.857E3,5.485E3,4.407E3,1.1693E4,2.444E3,7.11E3,1.0492E4,1.87E2,1.257E3,3.166E3,6.91E2,3.877E3,1.608E3,3.116E3,1.291E3,8.472E3,3.221E3,5.24E2,1.92E3,1.553E3,5.557E3,2.092E3,8.4E3],"tree_param":{"num_deleted":"0","num_feature":"22","num_nodes":"31","size_leaf_vector":"1"}},{"base_weights":[5.6600955E-5,-1.1698188E-1,8.788772E-2,-2.3367928E-1,-7.293906E-2,4.4335578E-2,1.3257012E-1,-3.0107656E-1,-1.8843913E-1,-1.1550405E-1,-3.8203694E-2,2.5467379E-2,9.0067655E-2,1.10413514E-1,1.5946636E-1,-3.192929E-2,-1.9287167E-2,-2.1011375E-2,-1.3769469E-2,-1.63271E-2,-9.378086E-3,-9.692696E-3,-2.0063142E-3,7.0776616E-4,7.1911723E-3,4.7765137E-3,1.0798269E-2,8.810125E-3,1.5794592E-2,1.4665374E-2,1.8296318E-2],"categories":[],"categories_nodes":[],"categories_segments":[],"categories_sizes":[],"default_left":[0,0,0,0,0,0,0,0,0,0,0,0,0,0,0,0,0,0,0,0,0,0,0,0,0,0,0,0,0,0,0],"id":14,"left_children":[1,3,5,7,9,11,13,15,17,19,21,23,25,27,29,-1,-1,-1,-1,-1,-1,-1,-1,-1,-1,-1,-1,-1,-1,-1,-1],"loss_changes":[4.8072952E2,1.0248862E2,5.171158E1,1.584256E1,2.127198E1,1.1502277E1,7.3845673E0,4.389694E0,3.3764114E0,6.201523E0,8.435681E0,8.231015E0,2.932211E0,7.1727676E0,1.0597229E0,0E0,0E0,0E0,0E0,0E0,0E0,0E0,0E0,0E0,0E0,0E0,0E0,0E0,0E0,0E0,0E0],"parents":[2147483647,0,0,1,1,2,2,3,3,4,4,5,5,6,6,7,7,8,8,9,9,10,10,11,11,12,12,13,13,14,14],"right_children":[2,4,6,8,10,12,14,16,18,20,22,24,26,28,30,-1,-1,-1,-1,-1,-1,-1,-1,-1,-1,-1,-1,-1,-1,-1,-1],"split_conditions":[3.117E0,2.524E0,3.481E0,2.242E0,2.849E0,1.41E1,1.187E1,1.572E1,1.339E1,8.1E0,7.1E0,3E0,3.24E0,3.755E0,1.723E1,-3.192929E-2,-1.9287167E-2,-2.1011375E-2,-1.3769469E-2,-1.63271E-2,-9.378086E-3,-9.692696E-3,-2.0063142E-3,7.0776616E-4,7.1911723E-3,4.7765137E-3,1.0798269E-2,8.810125E-3,1.5794592E-2,1.4665374E-2,1.8296318E-2],"split_indices":[1,1,1,1,1,6,6,6,6,6,6,3,1,1,6,0,0,0,0,0,0,0,0,0,0,0,0,0,0,0,0],"split_type":[0,0,0,0,0,0,0,0,0,0,0,0,0,0,0,0,0,0,0,0,0,0,0,0,0,0,0,0,0,0,0],"sum_hessian":[4.6768E4,2.0042E4,2.6726E4,5.48E3,1.4562E4,1.3554E4,1.3172E4,2.184E3,3.296E3,6.521E3,8.041E3,9.622E3,3.932E3,7.259E3,5.913E3,1.776E3,4.08E2,2.155E3,1.141E3,1.849E3,4.672E3,1.815E3,6.226E3,6.976E3,2.646E3,1.287E3,2.645E3,5.139E3,2.12E3,4.269E3,1.644E3],"tree_param":{"num_deleted":"0","num_feature":"22","num_nodes":"31","size_leaf_vector":"1"}},{"base_weights":[-2.9062974E-4,-1.1474651E-1,7.408774E-2,-2.1313071E-1,-7.3051564E-2,3.4614377E-2,1.1952351E-1,-2.6606566E-1,-1.6626537E-1,-1.1054941E-1,-4.3688674E-2,-7.637273E-4,5.9954733E-2,8.937752E-2,1.4123641E-1,-3.511289E-2,-2.3668295E-2,-2.055035E-2,-1.3371492E-2,-1.4558007E-2,-8.187638E-3,-8.206653E-3,-1.4577938E-3,-5.579582E-3,1.5177894E-3,-0E0,7.1020285E-3,6.4386423E-3,1.279091E-2,1.013762E-2,1.4746103E-2],"categories":[],"categories_nodes":[],"categories_segments":[],"categories_sizes":[],"default_left":[0,0,0,0,0,0,0,0,0,0,0,0,0,0,0,0,0,0,0,0,0,0,0,0,0,0,0,0,0,0,0],"id":15,"left_children":[1,3,5,7,9,11,13,15,17,19,21,23,25,27,29,-1,-1,-1,-1,-1,-1,-1,-1,-1,-1,-1,-1,-1,-1,-1,-1],"loss_changes":[3.988354E2,7.5230484E1,5.064499E1,1.2837891E1,1.4028488E1,1.373308E1,8.2283325E0,4.8766174E0,3.1841965E0,5.4013443E0,8.200243E0,5.783432E0,6.4029255E0,5.062935E0,2.04451E0,0E0,0E0,0E0,0E0,0E0,0E0,0E0,0E0,0E0,0E0,0E0,0E0,0E0,0E0,0E0,0E0],"parents":[2147483647,0,0,1,1,2,2,3,3,4,4,5,5,6,6,7,7,8,8,9,9,10,10,11,11,12,12,13,13,14,14],"right_children":[2,4,6,8,10,12,14,16,18,20,22,24,26,28,30,-1,-1,-1,-1,-1,-1,-1,-1,-1,-1,-1,-1,-1,-1,-1,-1],"split_conditions":[3.069E0,2.524E0,3.481E0,2.287E0,2.812E0,3E0,3E0,1.92E0,3E0,3E0,3E0,7.1E0,6.16E0,3.722E0,6.4E0,-3.511289E-2,-2.3668295E-2,-2.055035E-2,-1.3371492E-2,-1.4558007E-2,-8.187638E-3,-8.206653E-3,-1.4577938E-3,-5.579582E-3,1.5177894E-3,-0E0,7.1020285E-3,6.4386423E-3,1.279091E-2,1.013762E-2,1.4746103E-2],"split_indices":[1,1,1,1,1,0,0,1,0,0,0,6,6,1,6,0,0,0,0,0,0,0,0,0,0,0,0,0,0,0,0],"split_type":[0,0,0,0,0,0,0,0,0,0,0,0,0,0,0,0,0,0,0,0,0,0,0,0,0,0,0,0,0,0,0],"sum_hessian":[4.684E4,1.8458E4,2.8382E4,5.481E3,1.2977E4,1.5208E4,1.3174E4,2.555E3,2.926E3,5.673E3,7.304E3,6.32E3,8.888E3,5.55E3,7.624E3,5.49E2,2.006E3,1.199E3,1.727E3,2.377E3,3.296E3,3.054E3,4.25E3,1.441E3,4.879E3,1.513E3,7.375E3,3.512E3,2.038E3,1.421E3,6.203E3],"tree_param":{"num_deleted":"0","num_feature":"22","num_nodes":"31","size_leaf_vector":"1"}},{"base_weights":[-3.8091894E-4,-9.375982E-2,7.449955E-2,-1.7629232E-1,-5.0587658E-2,4.2139757E-2,1.1024908E-1,-2.3658037E-1,-1.3830756E-1,-6.972243E-2,-3.1670777E-3,-1.0584149E-2,5.7117935E-2,6.536858E-2,1.2281878E-1,-2.890246E-2,-1.9685077E-2,-1.7511215E-2,-1.087322E-2,-1.0390529E-2,-4.358275E-3,-1.8479895E-3,5.376173E-3,-3.0523282E-3,3.7537664E-3,6.617483E-3,-1.0230731E-3,-0E0,8.199083E-3,9.502368E-3,1.3473994E-2],"categories":[],"categories_nodes":[],"categories_segments":[],"categories_sizes":[],"default_left":[0,0,0,0,0,0,0,0,0,0,0,0,0,0,0,0,0,0,0,0,0,0,0,0,0,0,0,0,0,0,0],"id":16,"left_children":[1,3,5,7,9,11,13,15,17,19,21,23,25,27,29,-1,-1,-1,-1,-1,-1,-1,-1,-1,-1,-1,-1,-1,-1,-1,-1],"loss_changes":[3.2673114E2,7.373775E1,2.9727875E1,1.567514E1,1.2285412E1,1.0842363E1,6.612793E0,4.8392487E0,4.3445587E0,8.601765E0,3.5059102E0,2.9628882E0,7.330105E0,3.312626E0,3.1259155E0,0E0,0E0,0E0,0E0,0E0,0E0,0E0,0E0,0E0,0E0,0E0,0E0,0E0,0E0,0E0,0E0],"parents":[2147483647,0,0,1,1,2,2,3,3,4,4,5,5,6,6,7,7,8,8,9,9,10,10,11,11,12,12,13,13,14,14],"right_children":[2,4,6,8,10,12,14,16,18,20,22,24,26,28,30,-1,-1,-1,-1,-1,-1,-1,-1,-1,-1,-1,-1,-1,-1,-1,-1],"split_conditions":[3.139E0,2.625E0,3.506E0,2.306E0,1.41E1,2E0,2E0,9.76E0,3E0,3E0,1.929E1,1.405E1,1E0,6.61E0,9.16E0,-2.890246E-2,-1.9685077E-2,-1.7511215E-2,-1.087322E-2,-1.0390529E-2,-4.358275E-3,-1.8479895E-3,5.376173E-3,-3.0523282E-3,3.7537664E-3,6.617483E-3,-1.0230731E-3,-0E0,8.199083E-3,9.502368E-3,1.3473994E-2],"split_indices":[1,1,1,1,6,0,0,6,0,0,6,6,13,6,6,0,0,0,0,0,0,0,0,0,0,0,0,0,0,0,0],"split_type":[0,0,0,0,0,0,0,0,0,0,0,0,0,0,0,0,0,0,0,0,0,0,0,0,0,0,0,0,0,0,0],"sum_hessian":[4.6721E4,2.0802E4,2.5919E4,7.13E3,1.3672E4,1.363E4,1.2289E4,2.737E3,4.393E3,9.716E3,3.956E3,2.991E3,1.0639E4,2.719E3,9.57E3,1.053E3,1.684E3,1.792E3,2.601E3,4.012E3,5.704E3,3.138E3,8.18E2,2.132E3,8.59E2,9.279E3,1.36E3,5.65E2,2.154E3,3.364E3,6.206E3],"tree_param":{"num_deleted":"0","num_feature":"22","num_nodes":"31","size_leaf_vector":"1"}},{"base_weights":[2.0443492E-4,-1.1603707E-1,5.0126E-2,-2.0666675E-1,-9.02135E-2,-2.4201565E-3,8.402002E-2,-2.9537952E-1,-1.8684721E-1,-1.0659683E-1,-3.907684E-2,-5.5575483E-2,1.2209016E-2,6.615026E-2,1.1470202E-1,-3.073837E-2,-1.2702901E-2,-2.142702E-2,-1.340622E-2,-1.1604584E-2,-3.7873692E-3,-9.407223E-3,8.2745645E-3,-7.206932E-3,-5.789418E-4,-2.7937305E-4,6.1112996E-3,4.943062E-4,7.6574516E-3,9.976269E-3,1.3933579E-2],"categories":[],"categories_nodes":[],"categories_segments":[],"categories_sizes":[],"default_left":[0,0,0,0,0,0,0,0,0,0,0,0,0,0,0,0,0,0,0,0,0,0,0,0,0,0,0,0,0,0,0],"id":17,"left_children":[1,3,5,7,9,11,13,15,17,19,21,23,25,27,29,-1,-1,-1,-1,-1,-1,-1,-1,-1,-1,-1,-1,-1,-1,-1,-1],"loss_changes":[2.7184625E2,3.241768E1,5.854358E1,4.6036377E0,8.941208E0,1.0058068E1,1.0633102E1,7.581482E-1,3.365448E0,6.0727158E0,1.8694714E1,2.3139896E0,7.6320906E0,8.830612E0,2.2063065E0,0E0,0E0,0E0,0E0,0E0,0E0,0E0,0E0,0E0,0E0,0E0,0E0,0E0,0E0,0E0,0E0],"parents":[2147483647,0,0,1,1,2,2,3,3,4,4,5,5,6,6,7,7,8,8,9,9,10,10,11,11,12,12,13,13,14,14],"right_children":[2,4,6,8,10,12,14,16,18,20,22,24,26,28,30,-1,-1,-1,-1,-1,-1,-1,-1,-1,-1,-1,-1,-1,-1,-1,-1],"split_conditions":[2.922E0,2.343E0,3.304E0,1.92E0,1E0,2E0,3.641E0,1.752E1,1.285E1,1.685E1,3E0,3E0,1.509E1,5.83E0,3.81E0,-3.073837E-2,-1.2702901E-2,-2.142702E-2,-1.340622E-2,-1.1604584E-2,-3.7873692E-3,-9.407223E-3,8.2745645E-3,-7.206932E-3,-5.789418E-4,-2.7937305E-4,6.1112996E-3,4.943062E-4,7.6574516E-3,9.976269E-3,1.3933579E-2],"split_indices":[1,1,1,1,12,0,1,6,6,6,3,3,6,6,1,0,0,0,0,0,0,0,0,0,0,0,0,0,0,0,0],"split_type":[0,0,0,0,0,0,0,0,0,0,0,0,0,0,0,0,0,0,0,0,0,0,0,0,0,0,0,0,0,0,0],"sum_hessian":[4.6863E4,1.4069E4,3.2794E4,3.104E3,1.0965E4,1.284E4,1.9954E4,5.49E2,2.555E3,8.279E3,2.686E3,2.795E3,1.0045E4,1.2646E4,7.308E3,4.89E2,6E1,1.569E3,9.86E2,7.086E3,1.193E3,1.851E3,8.35E2,2.039E3,7.56E2,7.691E3,2.354E3,2.04E3,1.0606E4,4.914E3,2.394E3],"tree_param":{"num_deleted":"0","num_feature":"22","num_nodes":"31","size_leaf_vector":"1"}},{"base_weights":[2.0559446E-4,-9.324656E-2,4.9909495E-2,-1.626669E-1,-6.2894255E-2,-1.5270303E-3,7.329624E-2,-2.4479844E-1,-1.4356023E-1,-1.1662759E-1,-4.738402E-2,-1.0962393E-2,7.6968655E-2,4.6329413E-2,9.268184E-2,-2.757005E-2,-1.669198E-2,-1.8387122E-2,-1.1058154E-2,-1.26885455E-2,-3.440999E-3,-6.3176816E-3,-3.9891267E-4,-1.0030348E-5,-8.46246E-3,5.4847337E-3,1.3180447E-2,7.21773E-4,6.4109196E-3,7.1303765E-3,1.1024141E-2],"categories":[],"categories_nodes":[],"categories_segments":[],"categories_sizes":[],"default_left":[0,0,0,0,0,0,0,0,0,0,0,0,0,0,0,0,0,0,0,0,0,0,0,0,0,0,0,0,0,0,0],"id":18,"left_children":[1,3,5,7,9,11,13,15,17,19,21,23,25,27,29,-1,-1,-1,-1,-1,-1,-1,-1,-1,-1,-1,-1,-1,-1,-1,-1],"loss_changes":[2.1773378E2,3.3895203E1,3.6955475E1,7.0597687E0,9.171482E0,6.964337E0,1.0781227E1,1.6225433E0,4.9067993E0,2.2314034E0,6.2962837E0,6.8138857E0,8.951225E-1,6.356655E0,4.4589767E0,0E0,0E0,0E0,0E0,0E0,0E0,0E0,0E0,0E0,0E0,0E0,0E0,0E0,0E0,0E0,0E0],"parents":[2147483647,0,0,1,1,2,2,3,3,4,4,5,5,6,6,7,7,8,8,9,9,10,10,11,11,12,12,13,13,14,14],"right_children":[2,4,6,8,10,12,14,16,18,20,22,24,26,28,30,-1,-1,-1,-1,-1,-1,-1,-1,-1,-1,-1,-1,-1,-1,-1,-1],"split_conditions":[2.999E0,2.49E0,3.274E0,2.033E0,2E0,1.773E1,3E0,1.355E1,3E0,1.723E1,3E0,1E0,2.129E1,8.77E0,3.546E0,-2.757005E-2,-1.669198E-2,-1.8387122E-2,-1.1058154E-2,-1.26885455E-2,-3.440999E-3,-6.3176816E-3,-3.9891267E-4,-1.0030348E-5,-8.46246E-3,5.4847337E-3,1.3180447E-2,7.21773E-4,6.4109196E-3,7.1303765E-3,1.1024141E-2],"split_indices":[1,1,1,1,0,6,0,6,0,6,3,13,6,6,1,0,0,0,0,0,0,0,0,0,0,0,0,0,0,0,0],"split_type":[0,0,0,0,0,0,0,0,0,0,0,0,0,0,0,0,0,0,0,0,0,0,0,0,0,0,0,0,0,0,0],"sum_hessian":[4.6889E4,1.6268E4,3.0621E4,4.931E3,1.1337E4,9.549E3,2.1072E4,9.12E2,4.019E3,2.514E3,8.823E3,8.544E3,1.005E3,8.85E3,1.2222E4,6.05E2,3.07E2,1.665E3,2.354E3,2.169E3,3.45E2,6.334E3,2.489E3,7.483E3,1.061E3,7.54E2,2.51E2,2.904E3,5.946E3,5.996E3,6.226E3],"tree_param":{"num_deleted":"0","num_feature":"22","num_nodes":"31","size_leaf_vector":"1"}},{"base_weights":[-7.387506E-5,-2.8986948E-2,2.0664671E-2,-6.579555E-2,-1.2313039E-2,-1.0355515E-2,3.7623044E-2,-5.299889E-2,-1.5120803E-1,-2.7015738E-2,2.511457E-2,1.3153307E-4,-8.4200144E-2,2.8059212E-2,8.278556E-2,-6.9536786E-3,-4.3865442E-4,-6.8054236E-3,-3.9192665E-2,-3.4786318E-3,2.2905618E-3,3.5969166E-3,-5.3431126E-3,-1.4732616E-3,3.8472775E-3,-2.7339791E-3,-3.7136625E-2,1.4679107E-3,6.156517E-3,7.235547E-3,1.2244105E-2],"categories":[],"categories_nodes":[],"categories_segments":[],"categories_sizes":[],"default_left":[0,0,0,0,0,0,0,0,0,0,0,0,0,0,0,0,0,0,0,0,0,0,0,0,0,0,0,0,0,0,0],"id":19,"left_children":[1,3,5,7,9,11,13,15,17,19,21,23,25,27,29,-1,-1,-1,-1,-1,-1,-1,-1,-1,-1,-1,-1,-1,-1,-1,-1],"loss_changes":[2.80788E1,1.188846E1,1.436584E1,6.2918396E0,7.4382095E0,7.564633E0,7.4307003E0,4.4056873E0,1.4877871E1,4.0840197E0,3.393775E0,4.962083E0,1.9351463E1,6.4804344E0,8.43483E-1,0E0,0E0,0E0,0E0,0E0,0E0,0E0,0E0,0E0,0E0,0E0,0E0,0E0,0E0,0E0,0E0],"parents":[2147483647,0,0,1,1,2,2,3,3,4,4,5,5,6,6,7,7,8,8,9,9,10,10,11,11,12,12,13,13,14,14],"right_children":[2,4,6,8,10,12,14,16,18,20,22,24,26,28,30,-1,-1,-1,-1,-1,-1,-1,-1,-1,-1,-1,-1,-1,-1,-1,-1],"split_conditions":[3E0,8.49E0,9.16E0,1E0,3E0,1E0,1.762E1,3E0,1.537E1,1.807E1,1E0,3E0,1.878E1,3E0,2.206E1,-6.9536786E-3,-4.3865442E-4,-6.8054236E-3,-3.9192665E-2,-3.4786318E-3,2.2905618E-3,3.5969166E-3,-5.3431126E-3,-1.4732616E-3,3.8472775E-3,-2.7339791E-3,-3.7136625E-2,1.4679107E-3,6.156517E-3,7.235547E-3,1.2244105E-2],"split_indices":[0,6,6,13,3,13,6,3,2,6,13,3,2,3,6,0,0,0,0,0,0,0,0,0,0,0,0,0,0,0,0],"split_type":[0,0,0,0,0,0,0,0,0,0,0,0,0,0,0,0,0,0,0,0,0,0,0,0,0,0,0,0,0,0,0],"sum_hessian":[4.6803E4,1.9582E4,2.7221E4,6.073E3,1.3509E4,9.587E3,1.7634E4,5.3E3,7.73E2,9.731E3,3.778E3,8.376E3,1.211E3,1.4584E4,3.05E3,3.864E3,1.436E3,5.86E2,1.87E2,8.38E3,1.351E3,3.322E3,4.56E2,6.006E3,2.37E3,1.021E3,1.9E2,1.059E4,3.994E3,2.526E3,5.24E2],"tree_param":{"num_deleted":"0","num_feature":"22","num_nodes":"31","size_leaf_vector":"1"}},{"base_weights":[-4.7197223E-5,-9.568559E-2,4.0129818E-2,-1.7076953E-1,-7.3917426E-2,-3.4226382E-3,6.73634E-2,-2.3965417E-1,-1.4937085E-1,-1.2782277E-1,-6.0752228E-2,-1.7993366E-2,4.1685257E-2,7.519834E-2,1.4191433E-2,-2.5601063E-2,-1.4609648E-2,-1.9020475E-2,-1.1814492E-2,-1.1341835E-2,-2.0679953E-2,-7.4032443E-3,-1.5110767E-3,-6.1284E-3,-5.323234E-4,-1.3959988E-3,1.5961573E-2,5.8319545E-3,9.760487E-3,6.0499376E-3,-2.0604808E-2],"categories":[],"categories_nodes":[],"categories_segments":[],"categories_sizes":[],"default_left":[0,0,0,0,0,0,0,0,0,0,0,0,0,0,0,0,0,0,0,0,0,0,0,0,0,0,0,0,0,0,0],"id":20,"left_children":[1,3,5,7,9,11,13,15,17,19,21,23,25,27,29,-1,-1,-1,-1,-1,-1,-1,-1,-1,-1,-1,-1,-1,-1,-1,-1],"loss_changes":[1.7995033E2,2.2232872E1,3.918683E1,3.8835068E0,7.317417E0,8.278323E0,8.305832E0,6.06411E-1,2.5250702E0,1.6071358E0,5.529171E0,5.228835E0,2.0838127E1,6.479706E0,2.7574453E1,0E0,0E0,0E0,0E0,0E0,0E0,0E0,0E0,0E0,0E0,0E0,0E0,0E0,0E0,0E0,0E0],"parents":[2147483647,0,0,1,1,2,2,3,3,4,4,5,5,6,6,7,7,8,8,9,9,10,10,11,11,12,12,13,13,14,14],"right_children":[2,4,6,8,10,12,14,16,18,20,22,24,26,28,30,-1,-1,-1,-1,-1,-1,-1,-1,-1,-1,-1,-1,-1,-1,-1,-1],"split_conditions":[2.915E0,2.343E0,3.295E0,2E0,6.61E0,1E0,1E0,1.565E1,9.76E0,1E0,1E0,2E0,3E0,3.62E0,1.514E1,-2.5601063E-2,-1.4609648E-2,-1.9020475E-2,-1.1814492E-2,-1.1341835E-2,-2.0679953E-2,-7.4032443E-3,-1.5110767E-3,-6.1284E-3,-5.323234E-4,-1.3959988E-3,1.5961573E-2,5.8319545E-3,9.760487E-3,6.0499376E-3,-2.0604808E-2],"split_indices":[1,1,1,0,6,12,13,6,6,13,12,0,3,1,2,0,0,0,0,0,0,0,0,0,0,0,0,0,0,0,0],"split_type":[0,0,0,0,0,0,0,0,0,0,0,0,0,0,0,0,0,0,0,0,0,0,0,0,0,0,0,0,0,0,0],"sum_hessian":[4.6806E4,1.3858E4,3.2948E4,3.096E3,1.0762E4,1.2653E4,2.0295E4,7.13E2,2.383E3,2.086E3,8.676E3,9.592E3,3.061E3,1.7661E4,2.634E3,5.67E2,1.46E2,9.33E2,1.45E3,1.827E3,2.59E2,6.557E3,2.119E3,2.095E3,7.497E3,2.082E3,9.79E2,1.0628E4,7.033E3,2.181E3,4.53E2],"tree_param":{"num_deleted":"0","num_feature":"22","num_nodes":"31","size_leaf_vector":"1"}},{"base_weights":[-2.8672587E-4,-6.0135227E-2,5.2430827E-2,-1.1751243E-1,-2.7889496E-2,3.13525E-2,7.5194985E-2,-1.7124106E-1,-9.849332E-2,-4.1597627E-2,1.3436237E-2,1.7863402E-2,7.241869E-2,4.1447088E-2,8.476365E-2,-2.8453277E-2,-1.5557901E-2,-1.4519506E-2,-8.311297E-3,-1.0313242E-2,-3.2742661E-3,-3.4810137E-3,1.1371895E-2,4.9469125E-4,6.1502256E-3,2.3783098E-3,1.8269613E-2,2.4358027E-3,9.000765E-3,7.51049E-3,1.08896E-2],"categories":[],"categories_nodes":[],"categories_segments":[],"categories_sizes":[],"default_left":[0,0,0,0,0,0,0,0,0,0,0,0,0,0,0,0,0,0,0,0,0,0,0,0,0,0,0,0,0,0,0],"id":21,"left_children":[1,3,5,7,9,11,13,15,17,19,21,23,25,27,29,-1,-1,-1,-1,-1,-1,-1,-1,-1,-1,-1,-1,-1,-1,-1,-1],"loss_changes":[1.4745851E2,4.0275917E1,1.1735916E1,7.568283E0,8.001515E0,7.013015E0,3.6297455E0,2.384365E0,3.6268883E0,5.341856E0,1.739756E1,5.479027E0,1.6934746E1,2.0330367E0,1.7076569E0,0E0,0E0,0E0,0E0,0E0,0E0,0E0,0E0,0E0,0E0,0E0,0E0,0E0,0E0,0E0,0E0],"parents":[2147483647,0,0,1,1,2,2,3,3,4,4,5,5,6,6,7,7,8,8,9,9,10,10,11,11,12,12,13,13,14,14],"right_children":[2,4,6,8,10,12,14,16,18,20,22,24,26,28,30,-1,-1,-1,-1,-1,-1,-1,-1,-1,-1,-1,-1,-1,-1,-1,-1],"split_conditions":[3.171E0,2.661E0,3.516E0,2.22E0,1E0,1E0,2E0,1.707E0,2E0,4.82E0,3E0,1.529E1,3E0,3.797E0,3.789E0,-2.8453277E-2,-1.5557901E-2,-1.4519506E-2,-8.311297E-3,-1.0313242E-2,-3.2742661E-3,-3.4810137E-3,1.1371895E-2,4.9469125E-4,6.1502256E-3,2.3783098E-3,1.8269613E-2,2.4358027E-3,9.000765E-3,7.51049E-3,1.08896E-2],"split_indices":[1,1,1,1,12,12,0,1,0,6,3,6,3,1,1,0,0,0,0,0,0,0,0,0,0,0,0,0,0,0,0],"split_type":[0,0,0,0,0,0,0,0,0,0,0,0,0,0,0,0,0,0,0,0,0,0,0,0,0,0,0,0,0,0,0],"sum_hessian":[4.6731E4,2.19E4,2.4831E4,7.86E3,1.404E4,1.2932E4,1.1899E4,2.03E3,5.83E3,1.0573E4,3.467E3,9.766E3,3.166E3,2.668E3,9.231E3,1.91E2,1.839E3,1.276E3,4.554E3,1.211E3,9.362E3,2.335E3,1.132E3,7.612E3,2.154E3,2.23E3,9.36E2,2.025E3,6.43E2,6.994E3,2.237E3],"tree_param":{"num_deleted":"0","num_feature":"22","num_nodes":"31","size_leaf_vector":"1"}},{"base_weights":[1.6730095E-4,-8.252625E-2,3.1919714E-2,-1.4459118E-1,-6.5729044E-2,-1.6853772E-3,5.6891523E-2,-1.8391536E-1,-1.1385776E-1,-1.16779335E-1,-5.3051416E-2,-2.799508E-2,1.6849482E-2,2.8068414E-3,6.338972E-2,-2.0413393E-2,-1.0671571E-2,-1.2298933E-2,-1.3951018E-3,-1.0460593E-2,-1.8385805E-2,-7.930643E-3,-3.2634982E-3,-1.8058289E-3,-8.994305E-3,-1.6148846E-3,3.0023765E-3,1.5835612E-3,-8.350229E-3,3.1476934E-3,7.1089454E-3],"categories":[],"categories_nodes":[],"categories_segments":[],"categories_sizes":[],"default_left":[0,0,0,0,0,0,0,0,0,0,0,0,0,0,0,0,0,0,0,0,0,0,0,0,0,0,0,0,0,0,0],"id":22,"left_children":[1,3,5,7,9,11,13,15,17,19,21,23,25,27,29,-1,-1,-1,-1,-1,-1,-1,-1,-1,-1,-1,-1,-1,-1,-1,-1],"loss_changes":[1.2290472E2,1.3174278E1,2.8505535E1,2.7998428E0,6.338524E0,7.0444994E0,6.726742E0,1.5322876E0,1.487875E0,9.786606E-1,4.311529E0,3.4817533E0,3.8390665E0,2.346014E0,4.6157303E0,0E0,0E0,0E0,0E0,0E0,0E0,0E0,0E0,0E0,0E0,0E0,0E0,0E0,0E0,0E0,0E0],"parents":[2147483647,0,0,1,1,2,2,3,3,4,4,5,5,6,6,7,7,8,8,9,9,10,10,11,11,12,12,13,13,14,14],"right_children":[2,4,6,8,10,12,14,16,18,20,22,24,26,28,30,-1,-1,-1,-1,-1,-1,-1,-1,-1,-1,-1,-1,-1,-1,-1,-1],"split_conditions":[2.883E0,2.306E0,3.318E0,3E0,6.61E0,3E0,4.52E0,1E0,1.762E1,1E0,3E0,1E0,8.3E0,1E0,2E0,-2.0413393E-2,-1.0671571E-2,-1.2298933E-2,-1.3951018E-3,-1.0460593E-2,-1.8385805E-2,-7.930643E-3,-3.2634982E-3,-1.8058289E-3,-8.994305E-3,-1.6148846E-3,3.0023765E-3,1.5835612E-3,-8.350229E-3,3.1476934E-3,7.1089454E-3],"split_indices":[1,1,1,0,6,0,6,12,6,13,0,13,6,13,0,0,0,0,0,0,0,0,0,0,0,0,0,0,0,0,0],"split_type":[0,0,0,0,0,0,0,0,0,0,0,0,0,0,0,0,0,0,0,0,0,0,0,0,0,0,0,0,0,0,0],"sum_hessian":[4.6838E4,1.298E4,3.3858E4,2.742E3,1.0238E4,1.4406E4,1.9452E4,1.177E3,1.565E3,2.009E3,8.229E3,5.991E3,8.415E3,2.114E3,1.7338E4,8.81E2,2.96E2,1.394E3,1.71E2,1.768E3,2.41E2,3.422E3,4.807E3,5.222E3,7.69E2,2.412E3,6.003E3,1.853E3,2.61E2,3.832E3,1.3506E4],"tree_param":{"num_deleted":"0","num_feature":"22","num_nodes":"31","size_leaf_vector":"1"}},{"base_weights":[-2.0549964E-4,-5.3769458E-2,3.9408874E-2,-9.7901754E-2,-2.6962897E-2,1.7174298E-2,5.8392126E-2,-1.7357807E-1,-8.695368E-2,-4.7148924E-2,-1.6656435E-3,-2.301558E-2,2.8338335E-2,6.48758E-2,1.42948115E-2,-2.0052096E-2,-1.0856555E-2,-1.0063655E-2,-3.9581815E-3,-3.749147E-3,-1.0418601E-2,-4.5011654E-3,1.0559247E-3,-3.608574E-3,1.56412E-3,1.4151884E-3,6.4006113E-3,5.4321038E-3,8.919834E-3,3.0237422E-3,-2.3310587E-2],"categories":[],"categories_nodes":[],"categories_segments":[],"categories_sizes":[],"default_left":[0,0,0,0,0,0,0,0,0,0,0,0,0,0,0,0,0,0,0,0,0,0,0,0,0,0,0,0,0,0,0],"id":23,"left_children":[1,3,5,7,9,11,13,15,17,19,21,23,25,27,29,-1,-1,-1,-1,-1,-1,-1,-1,-1,-1,-1,-1,-1,-1,-1,-1],"loss_changes":[9.954532E1,2.3401093E1,1.1246197E1,5.7811584E0,6.2718973E0,5.596019E0,4.0116615E0,1.2252197E0,4.4518127E0,3.4225407E0,3.0909443E0,1.4526422E0,4.8729377E0,2.9006271E0,7.45624E0,0E0,0E0,0E0,0E0,0E0,0E0,0E0,0E0,0E0,0E0,0E0,0E0,0E0,0E0,0E0,0E0],"parents":[2147483647,0,0,1,1,2,2,3,3,4,4,5,5,6,6,7,7,8,8,9,9,10,10,11,11,12,12,13,13,14,14],"right_children":[2,4,6,8,10,12,14,16,18,20,22,24,26,28,30,-1,-1,-1,-1,-1,-1,-1,-1,-1,-1,-1,-1,-1,-1,-1,-1],"split_conditions":[3.112E0,2.643E0,3.447E0,2.033E0,1.187E1,2E0,1E0,1.355E1,1E0,1E0,2E0,1E0,3E0,3E0,7E0,-2.0052096E-2,-1.0856555E-2,-1.0063655E-2,-3.9581815E-3,-3.749147E-3,-1.0418601E-2,-4.5011654E-3,1.0559247E-3,-3.608574E-3,1.56412E-3,1.4151884E-3,6.4006113E-3,5.4321038E-3,8.919834E-3,3.0237422E-3,-2.3310587E-2],"split_indices":[1,1,1,1,6,0,13,6,12,13,0,12,3,3,7,0,0,0,0,0,0,0,0,0,0,0,0,0,0,0,0],"split_type":[0,0,0,0,0,0,0,0,0,0,0,0,0,0,0,0,0,0,0,0,0,0,0,0,0,0,0,0,0,0,0],"sum_hessian":[4.69E4,1.9957E4,2.6943E4,7.517E3,1.244E4,1.245E4,1.4493E4,9.29E2,6.588E3,6.882E3,5.558E3,2.674E3,9.776E3,1.2602E4,1.891E3,6.11E2,3.18E2,4.942E3,1.646E3,5.985E3,8.97E2,1.249E3,4.309E3,2.012E3,6.62E2,7.112E3,2.664E3,9.192E3,3.41E3,1.782E3,1.09E2],"tree_param":{"num_deleted":"0","num_feature":"22","num_nodes":"31","size_leaf_vector":"1"}},{"base_weights":[-2.5151714E-4,-6.229092E-2,2.7913649E-2,-1.0392765E-1,-4.4225577E-2,7.0383875E-3,5.2750643E-2,-1.7952584E-1,-9.1813445E-2,-5.299287E-2,6.9927117E-3,-3.7743952E-2,1.6547795E-2,4.005491E-2,7.451835E-2,-2.1933177E-2,-1.3868111E-2,-1.4042643E-2,-7.5227865E-3,-9.248385E-3,-4.0897396E-3,-7.973258E-4,3.763339E-3,-2.5046906E-3,-1.1305613E-2,4.3398843E-4,4.7235903E-3,2.8795085E-3,8.0549605E-3,6.426458E-3,9.024604E-3],"categories":[],"categories_nodes":[],"categories_segments":[],"categories_sizes":[],"default_left":[0,0,0,0,0,0,0,0,0,0,0,0,0,0,0,0,0,0,0,0,0,0,0,0,0,0,0,0,0,0,0],"id":24,"left_children":[1,3,5,7,9,11,13,15,17,19,21,23,25,27,29,-1,-1,-1,-1,-1,-1,-1,-1,-1,-1,-1,-1,-1,-1,-1,-1],"loss_changes":[8.189421E1,1.0762913E1,1.6591759E1,3.5644836E0,4.675411E0,7.4302254E0,3.8595963E0,3.480339E-1,2.6142464E0,3.8866386E0,7.4272954E-1,2.6482024E0,5.4393315E0,4.0175457E0,5.825176E-1,0E0,0E0,0E0,0E0,0E0,0E0,0E0,0E0,0E0,0E0,0E0,0E0,0E0,0E0,0E0,0E0],"parents":[2147483647,0,0,1,1,2,2,3,3,4,4,5,5,6,6,7,7,8,8,9,9,10,10,11,11,12,12,13,13,14,14],"right_children":[2,4,6,8,10,12,14,16,18,20,22,24,26,28,30,-1,-1,-1,-1,-1,-1,-1,-1,-1,-1,-1,-1,-1,-1,-1,-1],"split_conditions":[2.943E0,2.45E0,3.442E0,5.4E0,1.685E1,6.16E0,1.295E1,3E0,2E0,2E0,4E0,1E0,3E0,3.789E0,1.723E1,-2.1933177E-2,-1.3868111E-2,-1.4042643E-2,-7.5227865E-3,-9.248385E-3,-4.0897396E-3,-7.973258E-4,3.763339E-3,-2.5046906E-3,-1.1305613E-2,4.3398843E-4,4.7235903E-3,2.8795085E-3,8.0549605E-3,6.426458E-3,9.024604E-3],"split_indices":[1,1,1,6,6,6,6,0,0,0,0,13,3,1,6,0,0,0,0,0,0,0,0,0,0,0,0,0,0,0,0],"split_type":[0,0,0,0,0,0,0,0,0,0,0,0,0,0,0,0,0,0,0,0,0,0,0,0,0,0,0,0,0,0,0],"sum_hessian":[4.6833E4,1.4641E4,3.2192E4,4.401E3,1.024E4,1.7528E4,1.4664E4,5.87E2,3.814E3,8.771E3,1.469E3,3.039E3,1.4489E4,9.312E3,5.352E3,2.55E2,3.32E2,8.62E2,2.952E3,1.887E3,6.884E3,9.55E2,5.14E2,2.64E3,3.99E2,1.0489E4,4E3,7.428E3,1.884E3,3.538E3,1.814E3],"tree_param":{"num_deleted":"0","num_feature":"22","num_nodes":"31","size_leaf_vector":"1"}},{"base_weights":[-1.0196602E-4,-1.0756427E-2,3.2399785E-2,-6.64237E-2,-4.5156693E-3,-7.130544E-3,1.2196734E-1,-5.299615E-2,-1.2918457E-1,-3.8129106E-2,4.8960224E-3,-3.8788415E-2,5.9739077E-3,1.0394102E-1,1.4332376E-1,-8.327106E-3,-2.782906E-3,-4.8549944E-3,-2.9732056E-2,-4.6706875E-3,1.509599E-4,-1.5288466E-4,4.470417E-3,-5.503686E-3,-6.429556E-4,-1.6650356E-3,2.2233434E-3,7.935157E-3,1.1193991E-2,1.3114026E-2,1.7710403E-2],"categories":[],"categories_nodes":[],"categories_segments":[],"categories_sizes":[],"default_left":[0,0,0,0,0,0,0,0,0,0,0,0,0,0,0,0,0,0,0,0,0,0,0,0,0,0,0,0,0,0,0],"id":25,"left_children":[1,3,5,7,9,11,13,15,17,19,21,23,25,27,29,-1,-1,-1,-1,-1,-1,-1,-1,-1,-1,-1,-1,-1,-1,-1,-1],"loss_changes":[1.6179384E1,1.2146758E1,4.0986702E1,2.6672287E0,1.01070385E1,3.3661103E0,9.378357E-1,2.0999327E0,7.6803303E0,2.6528034E0,6.544789E0,1.2051544E0,2.1402524E0,1.1492348E-1,4.150009E-2,0E0,0E0,0E0,0E0,0E0,0E0,0E0,0E0,0E0,0E0,0E0,0E0,0E0,0E0,0E0,0E0],"parents":[2147483647,0,0,1,1,2,2,3,3,4,4,5,5,6,6,7,7,8,8,9,9,10,10,11,11,12,12,13,13,14,14],"right_children":[2,4,6,8,10,12,14,16,18,20,22,24,26,28,30,-1,-1,-1,-1,-1,-1,-1,-1,-1,-1,-1,-1,-1,-1,-1,-1],"split_conditions":[1E0,4.41E0,3E0,1E0,2E0,8.17E0,1E0,6.14E0,1.497E1,1.632E1,1.723E1,4E0,3E0,3.29E0,1.55E1,-8.327106E-3,-2.782906E-3,-4.8549944E-3,-2.9732056E-2,-4.6706875E-3,1.509599E-4,-1.5288466E-4,4.470417E-3,-5.503686E-3,-6.429556E-4,-1.6650356E-3,2.2233434E-3,7.935157E-3,1.1193991E-2,1.3114026E-2,1.7710403E-2],"split_indices":[12,6,3,13,0,6,5,2,2,6,6,0,0,2,6,0,0,0,0,0,0,0,0,0,0,0,0,0,0,0,0],"split_type":[0,0,0,0,0,0,0,0,0,0,0,0,0,0,0,0,0,0,0,0,0,0,0,0,0,0,0,0,0,0,0],"sum_hessian":[4.6824E4,3.5303E4,1.1521E4,3.531E3,3.1772E4,7.981E3,3.54E3,2.932E3,5.99E2,6.988E3,2.4784E4,2.373E3,5.608E3,1.965E3,1.575E3,1.258E3,1.674E3,4.17E2,1.82E2,5.695E3,1.293E3,2.1345E4,3.439E3,1.517E3,8.56E2,2.316E3,3.292E3,6.3E2,1.335E3,1.271E3,3.04E2],"tree_param":{"num_deleted":"0","num_feature":"22","num_nodes":"31","size_leaf_vector":"1"}},{"base_weights":[1.827818E-5,-3.8591206E-2,3.8096882E-2,-7.387428E-2,-1.3971021E-2,4.4245344E-2,-3.0998497E-3,-1.1734149E-1,-6.1422247E-2,-6.0450896E-3,-6.641558E-2,2.2427207E-2,5.6813728E-2,2.9912787E-2,-2.6368892E-1,-1.6740432E-2,-1.004114E-2,-1.7297719E-2,-5.568178E-3,-2.9381937E-3,1.4430928E-3,-8.5542933E-4,-3.2892026E-2,1.0036704E-3,5.495223E-3,4.6601077E-3,7.968221E-3,3.875505E-3,-8.335391E-3,-2.0322377E-2,-3.956469E-2],"categories":[],"categories_nodes":[],"categories_segments":[],"categories_sizes":[],"default_left":[0,0,0,0,0,0,0,0,0,0,0,0,0,0,0,0,0,0,0,0,0,0,0,0,0,0,0,0,0,0,0],"id":26,"left_children":[1,3,5,7,9,11,13,15,17,19,21,23,25,27,29,-1,-1,-1,-1,-1,-1,-1,-1,-1,-1,-1,-1,-1,-1,-1,-1],"loss_changes":[6.874698E1,2.0003807E1,6.037117E0,4.8412094E0,5.570692E0,5.4993668E0,2.6427835E1,1.2207756E0,3.7453423E0,5.895998E0,2.6767635E1,2.9755213E0,2.753872E0,2.826378E0,1.6464348E0,0E0,0E0,0E0,0E0,0E0,0E0,0E0,0E0,0E0,0E0,0E0,0E0,0E0,0E0,0E0,0E0],"parents":[2147483647,0,0,1,1,2,2,3,3,4,4,5,5,6,6,7,7,8,8,9,9,10,10,11,11,12,12,13,13,14,14],"right_children":[2,4,6,8,10,12,14,16,18,20,22,24,26,28,30,-1,-1,-1,-1,-1,-1,-1,-1,-1,-1,-1,-1,-1,-1,-1,-1],"split_conditions":[3.205E0,2.742E0,1E0,7.1E0,1E0,3.84E0,1.878E1,2.22E0,1.835E0,5.23E0,1.56E1,3.675E0,3E0,1.497E1,2.998E1,-1.6740432E-2,-1.004114E-2,-1.7297719E-2,-5.568178E-3,-2.9381937E-3,1.4430928E-3,-8.5542933E-4,-3.2892026E-2,1.0036704E-3,5.495223E-3,4.6601077E-3,7.968221E-3,3.875505E-3,-8.335391E-3,-2.0322377E-2,-3.956469E-2],"split_indices":[1,1,13,6,13,2,2,1,1,2,2,1,3,2,2,0,0,0,0,0,0,0,0,0,0,0,0,0,0,0,0],"split_type":[0,0,0,0,0,0,0,0,0,0,0,0,0,0,0,0,0,0,0,0,0,0,0,0,0,0,0,0,0,0,0],"sum_hessian":[4.6759E4,2.3196E4,2.3563E4,9.505E3,1.3691E4,2.0538E4,3.025E3,2.085E3,7.42E3,1.1922E4,1.769E3,7.556E3,1.2982E4,2.68E3,3.45E2,4.45E2,1.64E3,2.89E2,7.131E3,5.584E3,6.338E3,1.461E3,3.08E2,5.566E3,1.99E3,9.363E3,3.619E3,2.49E3,1.9E2,2.54E2,9.1E1],"tree_param":{"num_deleted":"0","num_feature":"22","num_nodes":"31","size_leaf_vector":"1"}},{"base_weights":[-1.914525E-4,-6.225533E-2,1.9503046E-2,-1.15601316E-1,-5.3081293E-2,-6.1063454E-3,3.7547495E-2,-2.0647196E-1,-1.0253179E-1,-6.565935E-2,-1.9872053E-2,-4.560655E-2,1.878675E-3,2.3706527E-2,5.415365E-2,-2.0602278E-2,-0E0,-1.3511969E-2,-7.333755E-3,-8.248557E-3,-3.8356357E-3,-5.946409E-3,8.494963E-3,-3.4450798E-3,-1.02406945E-2,-8.0759916E-4,3.3473605E-3,1.4469826E-3,6.4448765E-3,4.5435065E-3,7.242852E-3],"categories":[],"categories_nodes":[],"categories_segments":[],"categories_sizes":[],"default_left":[0,0,0,0,0,0,0,0,0,0,0,0,0,0,0,0,0,0,0,0,0,0,0,0,0,0,0,0,0,0,0],"id":27,"left_children":[1,3,5,7,9,11,13,15,17,19,21,23,25,27,29,-1,-1,-1,-1,-1,-1,-1,-1,-1,-1,-1,-1,-1,-1,-1,-1],"loss_changes":[5.728151E1,5.241596E0,1.6461855E1,1.4017162E0,3.8942719E0,4.690593E0,4.666338E0,1.2460804E-1,1.0423422E0,3.1638203E0,1.1538545E1,1.3146062E0,3.973404E0,4.1692843E0,1.2646313E0,0E0,0E0,0E0,0E0,0E0,0E0,0E0,0E0,0E0,0E0,0E0,0E0,0E0,0E0,0E0,0E0],"parents":[2147483647,0,0,1,1,2,2,3,3,4,4,5,5,6,6,7,7,8,8,9,9,10,10,11,11,12,12,13,13,14,14],"right_children":[2,4,6,8,10,12,14,16,18,20,22,24,26,28,30,-1,-1,-1,-1,-1,-1,-1,-1,-1,-1,-1,-1,-1,-1,-1,-1],"split_conditions":[2.819E0,2.171E0,3.279E0,1.707E0,3E0,6.16E0,1.182E1,2.255E1,3E0,1.239E1,1E0,1E0,1E0,3.761E0,1.714E1,-2.0602278E-2,-0E0,-1.3511969E-2,-7.333755E-3,-8.248557E-3,-3.8356357E-3,-5.946409E-3,8.494963E-3,-3.4450798E-3,-1.02406945E-2,-8.0759916E-4,3.3473605E-3,1.4469826E-3,6.4448765E-3,4.5435065E-3,7.242852E-3],"split_indices":[1,1,1,1,3,6,6,6,0,6,12,13,12,1,6,0,0,0,0,0,0,0,0,0,0,0,0,0,0,0,0],"split_type":[0,0,0,0,0,0,0,0,0,0,0,0,0,0,0,0,0,0,0,0,0,0,0,0,0,0,0,0,0,0,0],"sum_hessian":[4.6803E4,1.1294E4,3.5509E4,1.629E3,9.665E3,1.464E4,2.0869E4,1.87E2,1.442E3,6.973E3,2.692E3,2.496E3,1.2144E4,1.1438E4,9.431E3,1.85E2,2E0,6.17E2,8.25E2,4.119E3,2.854E3,1.96E3,7.32E2,2.137E3,3.59E2,9.204E3,2.94E3,9.44E3,1.998E3,6.734E3,2.697E3],"tree_param":{"num_deleted":"0","num_feature":"22","num_nodes":"31","size_leaf_vector":"1"}},{"base_weights":[-0E0,-3.172354E-2,3.1085275E-2,-6.2885694E-2,-1.3176929E-2,2.9064897E-3,3.8993906E-2,-7.3366E-2,-1.7859034E-2,-2.7957134E-2,1.291025E-2,-8.174452E-3,3.9705105E-2,4.395594E-2,4.6744086E-3,-1.4257307E-2,-6.536453E-3,-3.315584E-3,1.9829795E-3,-3.89097E-3,1.7033322E-4,9.511953E-5,4.8005823E-3,-1.8646879E-3,3.7296547E-3,2.2757803E-3,6.7045297E-3,2.793741E-3,5.675231E-3,4.1519543E-3,-1.6795626E-2],"categories":[],"categories_nodes":[],"categories_segments":[],"categories_sizes":[],"default_left":[0,0,0,0,0,0,0,0,0,0,0,0,0,0,0,0,0,0,0,0,0,0,0,0,0,0,0,0,0,0,0],"id":28,"left_children":[1,3,5,7,9,11,13,15,17,19,21,23,25,27,29,-1,-1,-1,-1,-1,-1,-1,-1,-1,-1,-1,-1,-1,-1,-1,-1],"loss_changes":[4.6078724E1,1.3246723E1,5.1866016E0,3.9055367E0,5.631969E0,2.1795602E0,3.0475464E0,3.1102104E0,1.0170019E0,3.2594752E0,2.1511796E0,1.9383945E0,4.3188894E-1,3.266529E0,1.5319269E1,0E0,0E0,0E0,0E0,0E0,0E0,0E0,0E0,0E0,0E0,0E0,0E0,0E0,0E0,0E0,0E0],"parents":[2147483647,0,0,1,1,2,2,3,3,4,4,5,5,6,6,7,7,8,8,9,9,10,10,11,11,12,12,13,13,14,14],"right_children":[2,4,6,8,10,12,14,16,18,20,22,24,26,28,30,-1,-1,-1,-1,-1,-1,-1,-1,-1,-1,-1,-1,-1,-1,-1,-1],"split_conditions":[3.205E0,2.701E0,2E0,1.579E1,4E0,3.698E0,1E0,1.984E0,3E0,3E0,1E0,1.593E1,3.836E0,5.34E0,1.514E1,-1.4257307E-2,-6.536453E-3,-3.315584E-3,1.9829795E-3,-3.89097E-3,1.7033322E-4,9.511953E-5,4.8005823E-3,-1.8646879E-3,3.7296547E-3,2.2757803E-3,6.7045297E-3,2.793741E-3,5.675231E-3,4.1519543E-3,-1.6795626E-2],"split_indices":[1,1,0,6,0,1,13,1,3,3,12,6,1,2,2,0,0,0,0,0,0,0,0,0,0,0,0,0,0,0,0],"split_type":[0,0,0,0,0,0,0,0,0,0,0,0,0,0,0,0,0,0,0,0,0,0,0,0,0,0,0,0,0,0,0],"sum_hessian":[4.6724E4,2.3139E4,2.3585E4,8.599E3,1.454E4,5.215E3,1.837E4,6.945E3,1.654E3,9.322E3,5.218E3,3.974E3,1.241E3,1.6007E4,2.363E3,5.97E2,6.348E3,1.199E3,4.55E2,6.751E3,2.571E3,3.949E3,1.269E3,3.251E3,7.23E2,8.21E2,4.2E2,7.536E3,8.471E3,1.955E3,4.08E2],"tree_param":{"num_deleted":"0","num_feature":"22","num_nodes":"31","size_leaf_vector":"1"}},{"base_weights":[-0E0,-5.0726697E-2,1.5707891E-2,-7.38471E-2,-3.4102697E-2,1.2241548E-3,3.731154E-2,-8.737076E-2,-3.4396034E-2,-2.5767308E-2,-9.085326E-2,-8.505034E-3,3.15085E-2,7.117577E-3,4.311587E-2,-1.2468784E-2,-7.1122358E-3,-4.980644E-3,1.0506092E-3,-5.082256E-3,-7.0550176E-4,-3.0828186E-3,-3.3247255E-2,-2.808872E-3,5.450969E-4,-5.1494734E-4,5.330111E-3,-8.548352E-4,4.44196E-3,4.6508037E-3,1.467305E-3],"categories":[],"categories_nodes":[],"categories_segments":[],"categories_sizes":[],"default_left":[0,0,0,0,0,0,0,0,0,0,0,0,0,0,0,0,0,0,0,0,0,0,0,0,0,0,0,0,0,0,0],"id":29,"left_children":[1,3,5,7,9,11,13,15,17,19,21,23,25,27,29,-1,-1,-1,-1,-1,-1,-1,-1,-1,-1,-1,-1,-1,-1,-1,-1],"loss_changes":[3.7309986E1,4.076147E0,1.1100936E1,2.2442589E0,2.8731346E0,6.3461533E0,2.4180794E0,1.6747456E0,9.451214E-1,2.6340678E0,1.120484E1,4.5799184E0,4.439947E0,1.4703549E0,1.2781677E0,0E0,0E0,0E0,0E0,0E0,0E0,0E0,0E0,0E0,0E0,0E0,0E0,0E0,0E0,0E0,0E0],"parents":[2147483647,0,0,1,1,2,2,3,3,4,4,5,5,6,6,7,7,8,8,9,9,10,10,11,11,12,12,13,13,14,14],"right_children":[2,4,6,8,10,12,14,16,18,20,22,24,26,28,30,-1,-1,-1,-1,-1,-1,-1,-1,-1,-1,-1,-1,-1,-1,-1,-1],"split_conditions":[2.812E0,3E0,3.452E0,1.45E1,1E0,1E0,5.83E0,2.324E0,1E0,4.51E0,1.514E1,3E0,3E0,3.729E0,1E0,-1.2468784E-2,-7.1122358E-3,-4.980644E-3,1.0506092E-3,-5.082256E-3,-7.0550176E-4,-3.0828186E-3,-3.3247255E-2,-2.808872E-3,5.450969E-4,-5.1494734E-4,5.330111E-3,-8.548352E-4,4.44196E-3,4.6508037E-3,1.467305E-3],"split_indices":[1,0,1,6,13,12,6,1,12,2,2,0,4,1,13,0,0,0,0,0,0,0,0,0,0,0,0,0,0,0,0],"split_type":[0,0,0,0,0,0,0,0,0,0,0,0,0,0,0,0,0,0,0,0,0,0,0,0,0,0,0,0,0,0,0],"sum_hessian":[4.6758E4,1.1077E4,3.5681E4,4.59E3,6.487E3,2.1407E4,1.4274E4,3.386E3,1.204E3,5.683E3,8.04E2,1.6161E4,5.246E3,2.348E3,1.1926E4,9.11E2,2.475E3,9.13E2,2.91E2,2.341E3,3.342E3,6.54E2,1.5E2,6.711E3,9.45E3,1.971E3,3.275E3,1.628E3,7.2E2,1.0359E4,1.567E3],"tree_param":{"num_deleted":"0","num_feature":"22","num_nodes":"31","size_leaf_vector":"1"}},{"base_weights":[-4.0244282E-4,-3.433084E-2,1.9916428E-2,-7.0500806E-2,-2.4053084E-2,1.1040808E-2,4.249632E-2,-8.538236E-2,-3.0789789E-2,-3.135343E-2,1.8539913E-2,3.5926676E-3,4.448313E-2,3.5365157E-2,6.637035E-2,-1.2020371E-2,-6.664066E-3,-7.779311E-3,7.9815425E-3,-2.4104225E-3,-7.5711543E-3,6.088471E-4,5.757533E-3,1.0025608E-3,-4.0006773E-3,3.1781096E-3,7.912701E-3,2.130593E-3,4.820632E-3,6.6132755E-3,-0E0],"categories":[],"categories_nodes":[],"categories_segments":[],"categories_sizes":[],"default_left":[0,0,0,0,0,0,0,0,0,0,0,0,0,0,0,0,0,0,0,0,0,0,0,0,0,0,0,0,0,0,0],"id":30,"left_children":[1,3,5,7,9,11,13,15,17,19,21,23,25,27,29,-1,-1,-1,-1,-1,-1,-1,-1,-1,-1,-1,-1,-1,-1,-1,-1],"loss_changes":[3.2309284E1,6.373663E0,5.7746696E0,2.080904E0,4.2883086E0,5.165224E0,1.2253256E0,1.4770794E0,5.8349905E0,3.5083275E0,8.666454E-1,4.977703E0,1.4726071E0,1.070159E0,9.109497E-2,0E0,0E0,0E0,0E0,0E0,0E0,0E0,0E0,0E0,0E0,0E0,0E0,0E0,0E0,0E0,0E0],"parents":[2147483647,0,0,1,1,2,2,3,3,4,4,5,5,6,6,7,7,8,8,9,9,10,10,11,11,12,12,13,13,14,14],"right_children":[2,4,6,8,10,12,14,16,18,20,22,24,26,28,30,-1,-1,-1,-1,-1,-1,-1,-1,-1,-1,-1,-1,-1,-1,-1,-1],"split_conditions":[3.04E0,2.41E0,3.615E0,3E0,1.685E1,1.593E1,3.836E0,8.71E0,1E0,1E0,2.101E1,1E0,1.999E1,1.125E1,9E0,-1.2020371E-2,-6.664066E-3,-7.779311E-3,7.9815425E-3,-2.4104225E-3,-7.5711543E-3,6.088471E-4,5.757533E-3,1.0025608E-3,-4.0006773E-3,3.1781096E-3,7.912701E-3,2.130593E-3,4.820632E-3,6.6132755E-3,-0E0],"split_indices":[1,1,1,3,6,6,1,6,12,13,6,13,6,6,7,0,0,0,0,0,0,0,0,0,0,0,0,0,0,0,0],"split_type":[0,0,0,0,0,0,0,0,0,0,0,0,0,0,0,0,0,0,0,0,0,0,0,0,0,0,0,0,0,0,0],"sum_hessian":[4.683E4,1.7571E4,2.9259E4,3.851E3,1.372E4,2.1057E4,8.202E3,2.77E3,1.081E3,1.1746E4,1.974E3,1.7263E4,3.794E3,6.371E3,1.831E3,8.7E2,1.9E3,7.66E2,3.15E2,1.0237E4,1.509E3,1.54E3,4.34E2,1.5058E4,2.205E3,2.866E3,9.28E2,3.23E3,3.141E3,1.809E3,2.2E1],"tree_param":{"num_deleted":"0","num_feature":"22","num_nodes":"31","size_leaf_vector":"1"}},{"base_weights":[1.4783217E-5,-2.4074676E-2,2.3615977E-2,-5.141327E-2,-1.13599375E-2,8.242656E-3,3.4628633E-2,-9.057846E-2,-3.9985284E-2,-2.3687247E-2,1.024799E-2,2.0490922E-3,5.1770374E-2,2.7618779E-2,5.3112365E-2,-1.656091E-2,-8.079946E-3,-5.2524824E-3,-5.2446075E-4,-3.2849854E-3,1.1391077E-4,8.917647E-5,3.2125185E-3,8.256391E-4,-3.9E-3,3.8778624E-3,6.557547E-3,1.7445575E-3,4.292001E-3,3.6450357E-3,7.234514E-3],"categories":[],"categories_nodes":[],"categories_segments":[],"categories_sizes":[],"default_left":[0,0,0,0,0,0,0,0,0,0,0,0,0,0,0,0,0,0,0,0,0,0,0,0,0,0,0,0,0,0,0],"id":31,"left_children":[1,3,5,7,9,11,13,15,17,19,21,23,25,27,29,-1,-1,-1,-1,-1,-1,-1,-1,-1,-1,-1,-1,-1,-1,-1,-1],"loss_changes":[2.6619986E1,7.937704E0,3.938613E0,3.0483055E0,4.2404833E0,2.5929885E0,1.6443939E0,6.4121914E-1,2.5334902E0,2.4868588E0,1.1364394E0,2.2554603E0,4.2924643E-2,1.482667E0,1.0295534E0,0E0,0E0,0E0,0E0,0E0,0E0,0E0,0E0,0E0,0E0,0E0,0E0,0E0,0E0,0E0,0E0],"parents":[2147483647,0,0,1,1,2,2,3,3,4,4,5,5,6,6,7,7,8,8,9,9,10,10,11,11,12,12,13,13,14,14],"right_children":[2,4,6,8,10,12,14,16,18,20,22,24,26,28,30,-1,-1,-1,-1,-1,-1,-1,-1,-1,-1,-1,-1,-1,-1,-1,-1],"split_conditions":[3.205E0,2.635E0,3E0,2E0,4E0,3.797E0,3E0,1.92E0,3E0,3E0,3E0,1E0,3.875E0,3.595E0,1E0,-1.656091E-2,-8.079946E-3,-5.2524824E-3,-5.2446075E-4,-3.2849854E-3,1.1391077E-4,8.917647E-5,3.2125185E-3,8.256391E-4,-3.9E-3,3.8778624E-3,6.557547E-3,1.7445575E-3,4.292001E-3,3.6450357E-3,7.234514E-3],"split_indices":[1,1,0,0,0,1,3,1,3,3,3,13,1,1,5,0,0,0,0,0,0,0,0,0,0,0,0,0,0,0,0],"split_type":[0,0,0,0,0,0,0,0,0,0,0,0,0,0,0,0,0,0,0,0,0,0,0,0,0,0,0,0,0,0,0],"sum_hessian":[4.6821E4,2.3136E4,2.3685E4,7.302E3,1.5834E4,9.949E3,1.3736E4,1.615E3,5.687E3,1.0131E4,5.703E3,8.744E3,1.205E3,1.0026E4,3.71E3,1.39E2,1.476E3,4.071E3,1.616E3,7.341E3,2.79E3,4.076E3,1.627E3,7.625E3,1.119E3,7.19E2,4.86E2,6.252E3,3.774E3,2.118E3,1.592E3],"tree_param":{"num_deleted":"0","num_feature":"22","num_nodes":"31","size_leaf_vector":"1"}},{"base_weights":[-0E0,-3.5787586E-2,1.2690407E-2,-8.3479434E-2,-2.8705947E-2,-4.1064512E-2,1.6412053E-2,-1.1437921E-1,-6.1295327E-2,-3.791346E-2,-0E0,-5.7029963E-2,-3.6917967E-3,-2.2490117E-4,2.612374E-2,-1.2719596E-2,-6.0087247E-3,-7.0368904E-3,-2.6894887E-3,-3.3651686E-3,-1.171994E-2,-3.7155363E-3,8.262939E-3,-6.9028502E-3,-1.4178231E-3,-1.3776249E-3,3.4154698E-3,-1.3011327E-3,1.9794723E-3,3.3268782E-3,-2.449789E-3],"categories":[],"categories_nodes":[],"categories_segments":[],"categories_sizes":[],"default_left":[0,0,0,0,0,0,0,0,0,0,0,0,0,0,0,0,0,0,0,0,0,0,0,0,0,0,0,0,0,0,0],"id":32,"left_children":[1,3,5,7,9,11,13,15,17,19,21,23,25,27,29,-1,-1,-1,-1,-1,-1,-1,-1,-1,-1,-1,-1,-1,-1,-1,-1],"loss_changes":[2.1269726E1,3.9513435E0,6.879315E0,7.6660347E-1,2.8018064E0,1.2182307E0,5.2744074E0,1.6280651E-1,1.5782428E-1,2.1971178E0,8.262176E0,7.038722E-1,2.4031349E-1,3.122172E0,8.022285E0,0E0,0E0,0E0,0E0,0E0,0E0,0E0,0E0,0E0,0E0,0E0,0E0,0E0,0E0,0E0,0E0],"parents":[2147483647,0,0,1,1,2,2,3,3,4,4,5,5,6,6,7,7,8,8,9,9,10,10,11,11,12,12,13,13,14,14],"right_children":[2,4,6,8,10,12,14,16,18,20,22,24,26,28,30,-1,-1,-1,-1,-1,-1,-1,-1,-1,-1,-1,-1,-1,-1,-1,-1],"split_conditions":[2.855E0,5.22E0,3.03E0,2.49E0,1E0,3.546E0,3.74E0,1E0,4.17E0,2.514E1,3E0,1E0,3.836E0,3.481E0,1E0,-1.2719596E-2,-6.0087247E-3,-7.0368904E-3,-2.6894887E-3,-3.3651686E-3,-1.171994E-2,-3.7155363E-3,8.262939E-3,-6.9028502E-3,-1.4178231E-3,-1.3776249E-3,3.4154698E-3,-1.3011327E-3,1.9794723E-3,3.3268782E-3,-2.449789E-3],"split_indices":[1,6,6,1,12,1,2,12,6,2,3,12,1,1,13,0,0,0,0,0,0,0,0,0,0,0,0,0,0,0,0],"split_type":[0,0,0,0,0,0,0,0,0,0,0,0,0,0,0,0,0,0,0,0,0,0,0,0,0,0,0,0,0,0,0],"sum_hessian":[4.6844E4,1.2257E4,3.4587E4,1.553E3,1.0704E4,2.21E3,3.2377E4,6.16E2,9.37E2,8.085E3,2.619E3,1.517E3,6.93E2,1.1871E4,2.0506E4,4.57E2,1.59E2,6.83E2,2.54E2,7.749E3,3.36E2,1.813E3,8.06E2,1.131E3,3.86E2,5.81E2,1.12E2,7.293E3,4.578E3,1.7858E4,2.648E3],"tree_param":{"num_deleted":"0","num_feature":"22","num_nodes":"31","size_leaf_vector":"1"}},{"base_weights":[-4.7870766E-5,-1.9678961E-2,2.0410025E-2,-5.2208208E-2,-1.0449401E-2,5.951688E-3,3.076641E-2,-9.305024E-2,-4.373508E-2,-3.1438686E-2,4.1030144E-4,-2.45912E-3,2.895401E-2,2.434211E-2,4.9705647E-2,-1.0255677E-2,-5.089462E-3,-5.123902E-3,-2.0015386E-3,-2.4299212E-3,-7.769775E-3,-7.4161694E-4,2.085643E-3,-9.4858557E-4,4.168522E-3,3.1286446E-4,9.779575E-3,1.3957745E-3,3.505494E-3,2.2957907E-3,1.07575115E-2],"categories":[],"categories_nodes":[],"categories_segments":[],"categories_sizes":[],"default_left":[0,0,0,0,0,0,0,0,0,0,0,0,0,0,0,0,0,0,0,0,0,0,0,0,0,0,0,0,0,0,0],"id":33,"left_children":[1,3,5,7,9,11,13,15,17,19,21,23,25,27,29,-1,-1,-1,-1,-1,-1,-1,-1,-1,-1,-1,-1,-1,-1,-1,-1],"loss_changes":[1.881305E1,7.0853624E0,3.367669E0,1.5867128E0,4.313039E0,1.9061846E0,1.4910555E0,1.339345E-1,7.301922E-1,1.8896985E0,2.0460458E0,2.1933353E0,4.598467E0,1.0588384E0,4.9557133E0,0E0,0E0,0E0,0E0,0E0,0E0,0E0,0E0,0E0,0E0,0E0,0E0,0E0,0E0,0E0,0E0],"parents":[2147483647,0,0,1,1,2,2,3,3,4,4,5,5,6,6,7,7,8,8,9,9,10,10,11,11,12,12,13,13,14,14],"right_children":[2,4,6,8,10,12,14,16,18,20,22,24,26,28,30,-1,-1,-1,-1,-1,-1,-1,-1,-1,-1,-1,-1,-1,-1,-1,-1],"split_conditions":[3.225E0,2E0,3E0,2.41E0,2.684E0,3E0,1E0,1E0,3E0,1E0,3E0,3.789E0,1E0,3.546E0,3E0,-1.0255677E-2,-5.089462E-3,-5.123902E-3,-2.0015386E-3,-2.4299212E-3,-7.769775E-3,-7.4161694E-4,2.085643E-3,-9.4858557E-4,4.168522E-3,3.1286446E-4,9.779575E-3,1.3957745E-3,3.505494E-3,2.2957907E-3,1.07575115E-2],"split_indices":[1,0,0,1,1,3,12,12,3,13,3,1,12,1,3,0,0,0,0,0,0,0,0,0,0,0,0,0,0,0,0],"split_type":[0,0,0,0,0,0,0,0,0,0,0,0,0,0,0,0,0,0,0,0,0,0,0,0,0,0,0,0,0,0,0],"sum_hessian":[4.6845E4,2.3947E4,2.2898E4,5.252E3,1.8695E4,9.624E3,1.3274E4,8.67E2,4.385E3,6.426E3,1.2269E4,6.995E3,2.629E3,9.979E3,3.295E3,6.51E2,2.16E2,3.185E3,1.2E3,5.656E3,7.7E2,8.818E3,3.451E3,6.062E3,9.33E2,1.942E3,6.87E2,5.32E3,4.659E3,2.303E3,9.92E2],"tree_param":{"num_deleted":"0","num_feature":"22","num_nodes":"31","size_leaf_vector":"1"}},{"base_weights":[-2.0370717E-4,-3.4083117E-2,9.455924E-3,-8.4445946E-2,-2.7512236E-2,3.4388683E-3,3.90713E-2,-1.54217E-1,-7.340091E-2,-3.3241663E-2,1.8682346E-2,8.755248E-3,-3.1945854E-2,3.1119172E-2,7.330364E-2,-0E0,-1.5560741E-2,-8.594159E-3,-4.271787E-3,-5.332789E-3,-1.8789548E-3,5.14886E-4,5.5272607E-3,-9.320287E-4,2.3432542E-3,3.4142777E-4,-2.7150892E-2,1.550246E-3,4.1014263E-3,7.3244874E-3,-0E0],"categories":[],"categories_nodes":[],"categories_segments":[],"categories_sizes":[],"default_left":[0,0,0,0,0,0,0,0,0,0,0,0,0,0,0,0,0,0,0,0,0,0,0,0,0,0,0,0,0,0,0],"id":34,"left_children":[1,3,5,7,9,11,13,15,17,19,21,23,25,27,29,-1,-1,-1,-1,-1,-1,-1,-1,-1,-1,-1,-1,-1,-1,-1,-1],"loss_changes":[1.5368221E1,3.263073E0,6.416749E0,5.1553726E-1,2.4745612E0,5.662905E0,1.4851866E0,8.915186E-2,2.1052504E-1,2.3252E0,3.9654738E-1,7.2534456E0,3.426984E1,7.120838E-1,8.0711365E-2,0E0,0E0,0E0,0E0,0E0,0E0,0E0,0E0,0E0,0E0,0E0,0E0,0E0,0E0,0E0,0E0],"parents":[2147483647,0,0,1,1,2,2,3,3,4,4,5,5,6,6,7,7,8,8,9,9,10,10,11,11,12,12,13,13,14,14],"right_children":[2,4,6,8,10,12,14,16,18,20,22,24,26,28,30,-1,-1,-1,-1,-1,-1,-1,-1,-1,-1,-1,-1,-1,-1,-1,-1],"split_conditions":[2.783E0,4.82E0,1.624E1,2.104E0,1.807E1,1E0,2.101E1,1.1E-1,4E0,4.19E0,1E0,5.23E0,1.878E1,3.79E0,2.646E1,-0E0,-1.5560741E-2,-8.594159E-3,-4.271787E-3,-5.332789E-3,-1.8789548E-3,5.14886E-4,5.5272607E-3,-9.320287E-4,2.3432542E-3,3.4142777E-4,-2.7150892E-2,1.550246E-3,4.1014263E-3,7.3244874E-3,-0E0],"split_indices":[1,6,6,1,6,13,6,2,0,2,12,2,2,2,2,0,0,0,0,0,0,0,0,0,0,0,0,0,0,0,0],"split_type":[0,0,0,0,0,0,0,0,0,0,0,0,0,0,0,0,0,0,0,0,0,0,0,0,0,0,0,0,0,0,0],"sum_hessian":[4.6833E4,1.0428E4,3.6405E4,1.173E3,9.255E3,3.0305E4,6.1E3,1.38E2,1.035E3,8.266E3,9.89E2,2.6388E4,3.917E3,4.991E3,1.109E3,3E0,1.35E2,6.69E2,3.66E2,3.29E3,4.976E3,7.61E2,2.28E2,1.1882E4,1.4506E4,3.415E3,5.02E2,2.093E3,2.898E3,1.092E3,1.7E1],"tree_param":{"num_deleted":"0","num_feature":"22","num_nodes":"31","size_leaf_vector":"1"}},{"base_weights":[-1.1628921E-4,-1.733558E-2,1.73042E-2,-2.92634E-2,3.4388718E-3,-9.566686E-3,2.2494381E-2,-5.430432E-2,-1.9049367E-2,-1.0845825E-2,2.0200578E-2,-1.935049E-2,2.8621472E-2,2.6927507E-3,2.7998863E-2,-7.9253595E-3,-4.300268E-3,-2.3293009E-3,2.6524237E-3,-2.8870897E-3,-0E0,1.4787464E-3,6.594751E-3,-3.2751458E-3,4.6089976E-4,1.0528618E-3,5.034776E-3,-6.554619E-4,2.295867E-3,2.1871126E-3,4.255809E-3],"categories":[],"categories_nodes":[],"categories_segments":[],"categories_sizes":[],"default_left":[0,0,0,0,0,0,0,0,0,0,0,0,0,0,0,0,0,0,0,0,0,0,0,0,0,0,0,0,0,0,0],"id":35,"left_children":[1,3,5,7,9,11,13,15,17,19,21,23,25,27,29,-1,-1,-1,-1,-1,-1,-1,-1,-1,-1,-1,-1,-1,-1,-1,-1],"loss_changes":[1.4004082E1,5.872569E0,3.2515402E0,3.7127056E0,2.0583758E0,1.3668305E0,2.0702877E0,9.868889E-1,2.2590284E0,9.5878816E-1,8.278086E-1,1.0429177E0,1.873219E-1,8.565956E-1,1.2264624E0,0E0,0E0,0E0,0E0,0E0,0E0,0E0,0E0,0E0,0E0,0E0,0E0,0E0,0E0,0E0,0E0],"parents":[2147483647,0,0,1,1,2,2,3,3,4,4,5,5,6,6,7,7,8,8,9,9,10,10,11,11,12,12,13,13,14,14],"right_children":[2,4,6,8,10,12,14,16,18,20,22,24,26,28,30,-1,-1,-1,-1,-1,-1,-1,-1,-1,-1,-1,-1,-1,-1,-1,-1],"split_conditions":[3.215E0,4E0,5.83E0,8.1E0,1.167E1,3.729E0,2E0,2.604E0,1.929E1,4.51E0,1.999E1,4E0,3.836E0,3.635E0,3E0,-7.9253595E-3,-4.300268E-3,-2.3293009E-3,2.6524237E-3,-2.8870897E-3,-0E0,1.4787464E-3,6.594751E-3,-3.2751458E-3,4.6089976E-4,1.0528618E-3,5.034776E-3,-6.554619E-4,2.295867E-3,2.1871126E-3,4.255809E-3],"split_indices":[1,0,6,6,6,1,0,1,6,2,6,0,1,1,3,0,0,0,0,0,0,0,0,0,0,0,0,0,0,0,0],"split_type":[0,0,0,0,0,0,0,0,0,0,0,0,0,0,0,0,0,0,0,0,0,0,0,0,0,0,0,0,0,0,0],"sum_hessian":[4.6683E4,2.3525E4,2.3158E4,1.4995E4,8.53E3,3.697E3,1.9461E4,4.296E3,1.0699E4,4.552E3,3.978E3,2.978E3,7.19E2,4.299E3,1.5162E4,1.195E3,3.101E3,9.759E3,9.4E2,1.738E3,2.814E3,3.614E3,3.64E2,1.93E3,1.048E3,4.42E2,2.77E2,2.903E3,1.396E3,1.1062E4,4.1E3],"tree_param":{"num_deleted":"0","num_feature":"22","num_nodes":"31","size_leaf_vector":"1"}},{"base_weights":[-3.2032712E-4,-4.8828408E-2,2.7319365E-3,-6.0018476E-2,-1.5141088E-2,-3.9911796E-3,2.3719754E-2,-7.838056E-2,-4.354782E-2,-4.8630074E-2,6.1752547E-2,-1.286343E-2,1.1441439E-2,-5.8491505E-3,9.061271E-2,-0E0,-7.817308E-3,-5.389969E-3,-2.9365586E-3,-5.1322537E-3,-0E0,-0E0,6.5577673E-3,-1.5881121E-3,3.0869176E-3,1.4002315E-3,-4.326572E-3,-2.3160477E-3,5.4299453E-4,7.4277134E-3,1.0707092E-2],"categories":[],"categories_nodes":[],"categories_segments":[],"categories_sizes":[],"default_left":[0,0,0,0,0,0,0,0,0,0,0,0,0,0,0,0,0,0,0,0,0,0,0,0,0,0,0,0,0,0,0],"id":36,"left_children":[1,3,5,7,9,11,13,15,17,19,21,23,25,27,29,-1,-1,-1,-1,-1,-1,-1,-1,-1,-1,-1,-1,-1,-1,-1,-1],"loss_changes":[7.0040607E0,9.305749E-1,6.239566E0,4.190116E-1,1.8790603E0,4.5559883E0,2.1368618E1,5.716467E-2,3.286934E-2,6.8719506E-2,8.970857E-2,3.0297554E0,1.806836E0,1.520716E0,5.957756E-1,0E0,0E0,0E0,0E0,0E0,0E0,0E0,0E0,0E0,0E0,0E0,0E0,0E0,0E0,0E0,0E0],"parents":[2147483647,0,0,1,1,2,2,3,3,4,4,5,5,6,6,7,7,8,8,9,9,10,10,11,11,12,12,13,13,14,14],"right_children":[2,4,6,8,10,12,14,16,18,20,22,24,26,28,30,-1,-1,-1,-1,-1,-1,-1,-1,-1,-1,-1,-1,-1,-1,-1,-1],"split_conditions":[2.87E0,1E0,1E0,3E0,3E0,4E0,3E0,2E-1,7.84E0,1E0,4.6E-1,1.929E1,2.514E1,4.62E0,1E0,-0E0,-7.817308E-3,-5.389969E-3,-2.9365586E-3,-5.1322537E-3,-0E0,-0E0,6.5577673E-3,-1.5881121E-3,3.0869176E-3,1.4002315E-3,-4.326572E-3,-2.3160477E-3,5.4299453E-4,7.4277134E-3,1.0707092E-2],"split_indices":[6,12,12,0,3,0,3,2,2,17,2,6,2,2,5,0,0,0,0,0,0,0,0,0,0,0,0,0,0,0,0],"split_type":[0,0,0,0,0,0,0,0,0,0,0,0,0,0,0,0,0,0,0,0,0,0,0,0,0,0,0,0,0,0,0],"sum_hessian":[4.6787E4,2.801E3,4.3986E4,2.065E3,7.36E2,3.3255E4,1.0731E4,9.27E2,1.138E3,5.28E2,2.08E2,2.1184E4,1.2071E4,7.425E3,3.306E3,1.4E1,9.13E2,5.59E2,5.79E2,4.85E2,4.3E1,9E0,1.99E2,1.9764E4,1.42E3,1.1524E4,5.47E2,2.963E3,4.462E3,1.85E3,1.456E3],"tree_param":{"num_deleted":"0","num_feature":"22","num_nodes":"31","size_leaf_vector":"1"}},{"base_weights":[-0E0,-1.5052582E-2,1.5726717E-2,-4.191489E-2,-7.4030105E-3,-2.1179125E-2,1.8514264E-2,-6.093957E-2,-2.9232997E-2,-1.5265439E-2,1.8994572E-2,-1.263545E-2,-7.62589E-2,4.406068E-3,2.5662614E-2,-9.157939E-3,-5.0314027E-3,-1.070096E-2,-2.5372247E-3,-5.6150337E-3,-1.1071081E-3,1.1446052E-3,7.052674E-3,-2.6778176E-3,9.29216E-4,-1.1681614E-3,-1.6588755E-2,-4.2898426E-4,2.390579E-3,3.0223809E-3,-7.35321E-4],"categories":[],"categories_nodes":[],"categories_segments":[],"categories_sizes":[],"default_left":[0,0,0,0,0,0,0,0,0,0,0,0,0,0,0,0,0,0,0,0,0,0,0,0,0,0,0,0,0,0,0],"id":37,"left_children":[1,3,5,7,9,11,13,15,17,19,21,23,25,27,29,-1,-1,-1,-1,-1,-1,-1,-1,-1,-1,-1,-1,-1,-1,-1,-1],"loss_changes":[1.1083173E1,4.835285E0,2.3506117E0,1.1166372E0,3.8702865E0,5.884018E-1,2.1004019E0,4.0304947E-1,6.58437E-1,2.31188E0,1.5049992E0,4.7396308E-1,7.909167E-1,1.2951686E0,2.381853E0,0E0,0E0,0E0,0E0,0E0,0E0,0E0,0E0,0E0,0E0,0E0,0E0,0E0,0E0,0E0,0E0],"parents":[2147483647,0,0,1,1,2,2,3,3,4,4,5,5,6,6,7,7,8,8,9,9,10,10,11,11,12,12,13,13,14,14],"right_children":[2,4,6,8,10,12,14,16,18,20,22,24,26,28,30,-1,-1,-1,-1,-1,-1,-1,-1,-1,-1,-1,-1,-1,-1,-1,-1],"split_conditions":[3.225E0,2E0,3.2E0,9.7E0,1.509E1,1E0,3.38E0,2.524E0,1.984E0,2.22E0,2.129E1,3.606E0,1.454E1,1.462E1,1E0,-9.157939E-3,-5.0314027E-3,-1.070096E-2,-2.5372247E-3,-5.6150337E-3,-1.1071081E-3,1.1446052E-3,7.052674E-3,-2.6778176E-3,9.29216E-4,-1.1681614E-3,-1.6588755E-2,-4.2898426E-4,2.390579E-3,3.0223809E-3,-7.35321E-4],"split_indices":[1,0,6,6,6,13,2,1,1,1,6,1,2,6,13,0,0,0,0,0,0,0,0,0,0,0,0,0,0,0,0],"split_type":[0,0,0,0,0,0,0,0,0,0,0,0,0,0,0,0,0,0,0,0,0,0,0,0,0,0,0,0,0,0,0],"sum_hessian":[4.6817E4,2.393E4,2.2887E4,5.255E3,1.8675E4,1.565E3,2.1322E4,2.048E3,3.207E3,1.4438E4,4.237E3,1.382E3,1.83E2,7.249E3,1.4073E4,4.4E2,1.608E3,1.13E2,3.094E3,1.232E3,1.3206E4,3.745E3,4.92E2,8.78E2,5.04E2,1.19E2,6.4E1,4.973E3,2.276E3,1.2263E4,1.81E3],"tree_param":{"num_deleted":"0","num_feature":"22","num_nodes":"31","size_leaf_vector":"1"}},{"base_weights":[4.4510496E-4,-1.7257977E-2,1.1655213E-2,-1.1664585E-2,-5.573488E-2,-7.415833E-3,1.7071376E-2,-3.1385694E-2,1.3982317E-3,-6.7902436E-3,-2.8129357E-1,-1.690056E-2,1.718837E-2,1.1518067E-2,3.3842407E-2,-5.347267E-3,-2.1169314E-3,-8.2818826E-4,2.666792E-3,-2.9182825E-3,4.2909358E-4,-2.1769337E-2,-4.555874E-2,-4.6299254E-3,-7.045037E-4,5.7622205E-5,2.6602624E-3,4.3001527E-4,2.6400606E-3,1.1710209E-3,8.245379E-3],"categories":[],"categories_nodes":[],"categories_segments":[],"categories_sizes":[],"default_left":[0,0,0,0,0,0,0,0,0,0,0,0,0,0,0,0,0,0,0,0,0,0,0,0,0,0,0,0,0,0,0],"id":38,"left_children":[1,3,5,7,9,11,13,15,17,19,21,23,25,27,29,-1,-1,-1,-1,-1,-1,-1,-1,-1,-1,-1,-1,-1,-1,-1,-1],"loss_changes":[9.267212E0,3.7755637E0,2.9783597E0,4.123205E0,2.4414806E1,1.4644061E0,2.0108075E0,1.3121004E0,2.4141614E0,5.156546E-1,3.0888329E0,1.253637E0,2.3110062E-1,1.7965968E0,5.860217E0,0E0,0E0,0E0,0E0,0E0,0E0,0E0,0E0,0E0,0E0,0E0,0E0,0E0,0E0,0E0,0E0],"parents":[2147483647,0,0,1,1,2,2,3,3,4,4,5,5,6,6,7,7,8,8,9,9,10,10,11,11,12,12,13,13,14,14],"right_children":[2,4,6,8,10,12,14,16,18,20,22,24,26,28,30,-1,-1,-1,-1,-1,-1,-1,-1,-1,-1,-1,-1,-1,-1,-1,-1],"split_conditions":[3.057E0,1E0,2E0,4.34E0,1.497E1,1.433E1,1E0,2.513E0,3E0,2.87E0,2.897E1,2.41E0,3.69E0,3.59E0,3E0,-5.347267E-3,-2.1169314E-3,-8.2818826E-4,2.666792E-3,-2.9182825E-3,4.2909358E-4,-2.1769337E-2,-4.555874E-2,-4.6299254E-3,-7.045037E-4,5.7622205E-5,2.6602624E-3,4.3001527E-4,2.6400606E-3,1.1710209E-3,8.245379E-3],"split_indices":[1,13,0,2,2,6,12,1,3,2,2,2,2,1,3,0,0,0,0,0,0,0,0,0,0,0,0,0,0,0,0],"split_type":[0,0,0,0,0,0,0,0,0,0,0,0,0,0,0,0,0,0,0,0,0,0,0,0,0,0,0,0,0,0,0],"sum_hessian":[4.6742E4,1.8065E4,2.8677E4,1.5811E4,2.254E3,6.275E3,2.2402E4,6.35E3,9.461E3,1.859E3,3.95E2,4.578E3,1.697E3,1.6905E4,5.497E3,1.863E3,4.487E3,6.8E3,2.661E3,6.58E2,1.201E3,3.05E2,9E1,1.077E3,3.501E3,6.94E2,1.003E3,1.1592E4,5.313E3,3.841E3,1.656E3],"tree_param":{"num_deleted":"0","num_feature":"22","num_nodes":"31","size_leaf_vector":"1"}},{"base_weights":[-1.7665737E-4,-1.2454795E-2,1.36626335E-2,-2.6571155E-2,-2.25102E-3,6.622186E-3,2.5908407E-2,-5.4763973E-2,-2.0298222E-2,2.1786492E-3,-3.3918783E-2,1.0537338E-4,2.619962E-2,2.0177443E-2,4.2156644E-2,-6.391317E-3,-1.936344E-3,-2.7056711E-3,-1.2082402E-4,-5.6075165E-4,2.2666613E-3,-1.5665725E-3,-2.698848E-2,-7.5722946E-4,2.1445248E-3,1.8234572E-3,4.3450207E-3,2.0898562E-3,-5.636106E-3,2.5938214E-3,7.495425E-3],"categories":[],"categories_nodes":[],"categories_segments":[],"categories_sizes":[],"default_left":[0,0,0,0,0,0,0,0,0,0,0,0,0,0,0,0,0,0,0,0,0,0,0,0,0,0,0,0,0,0,0],"id":39,"left_children":[1,3,5,7,9,11,13,15,17,19,21,23,25,27,29,-1,-1,-1,-1,-1,-1,-1,-1,-1,-1,-1,-1,-1,-1,-1,-1],"loss_changes":[7.9572515E0,3.5363896E0,1.8388648E0,1.7085867E0,2.0886145E0,1.7461841E0,6.3400507E-1,5.1234055E-1,1.1199296E0,2.109896E0,7.416087E0,1.8120812E0,3.68896E-1,4.204707E-1,8.9724684E-1,0E0,0E0,0E0,0E0,0E0,0E0,0E0,0E0,0E0,0E0,0E0,0E0,0E0,0E0,0E0,0E0],"parents":[2147483647,0,0,1,1,2,2,3,3,4,4,5,5,6,6,7,7,8,8,9,9,10,10,11,11,12,12,13,13,14,14],"right_children":[2,4,6,8,10,12,14,16,18,20,22,24,26,28,30,-1,-1,-1,-1,-1,-1,-1,-1,-1,-1,-1,-1,-1,-1,-1,-1],"split_conditions":[3.25E0,3E0,4E0,2.45E0,1E0,3.704E0,1E0,1E0,3E0,3E0,7E0,3E0,3.854E0,9E0,3E0,-6.391317E-3,-1.936344E-3,-2.7056711E-3,-1.2082402E-4,-5.6075165E-4,2.2666613E-3,-1.5665725E-3,-2.698848E-2,-7.5722946E-4,2.1445248E-3,1.8234572E-3,4.3450207E-3,2.0898562E-3,-5.636106E-3,2.5938214E-3,7.495425E-3],"split_indices":[1,0,0,1,13,1,12,12,3,3,7,3,1,7,3,0,0,0,0,0,0,0,0,0,0,0,0,0,0,0,0],"split_type":[0,0,0,0,0,0,0,0,0,0,0,0,0,0,0,0,0,0,0,0,0,0,0,0,0,0,0,0,0,0,0],"sum_hessian":[4.6839E4,2.4883E4,2.1956E4,1.0371E4,1.4512E4,1.4028E4,7.928E3,1.838E3,8.533E3,1.2686E4,1.826E3,1.0589E4,3.439E3,5.938E3,1.99E3,1.389E3,4.49E2,6.137E3,2.396E3,9.15E3,3.536E3,1.706E3,1.2E2,7.732E3,2.857E3,2.473E3,9.66E2,5.881E3,5.7E1,1.392E3,5.98E2],"tree_param":{"num_deleted":"0","num_feature":"22","num_nodes":"31","size_leaf_vector":"1"}},{"base_weights":[-0E0,-2.2787137E-2,6.5652328E-3,-1.2640299E-1,-2.071481E-2,-3.0249655E-3,1.7909791E-2,-1.2842268E-1,-0E0,-2.8179456E-2,1.7368754E-3,1.3841849E-3,-3.2850046E-2,1.501421E-2,5.6757797E-2,-0E0,-1.273279E-2,-2.5493873E-3,-1.2164972E-2,-3.0086392E-3,7.4072774E-3,-1.5866156E-3,1.4320561E-3,1.118115E-3,-1.8989176E-2,-1.0885E-4,2.1614325E-3,6.060953E-3,1.3092303E-3],"categories":[],"categories_nodes":[],"categories_segments":[],"categories_sizes":[],"default_left":[0,0,0,0,0,0,0,0,0,0,0,0,0,0,0,0,0,0,0,0,0,0,0,0,0,0,0,0,0],"id":40,"left_children":[1,3,5,7,9,11,13,15,-1,17,19,21,23,25,27,-1,-1,-1,-1,-1,-1,-1,-1,-1,-1,-1,-1,-1,-1],"loss_changes":[6.9964166E0,1.997046E0,3.9882221E0,6.428766E-2,1.763793E0,2.638029E0,1.7661943E0,8.039951E-3,0E0,1.4453597E0,6.0209427E0,3.9293814E0,1.855262E1,1.7829108E0,1.08389854E-1,0E0,0E0,0E0,0E0,0E0,0E0,0E0,0E0,0E0,0E0,0E0,0E0,0E0,0E0],"parents":[2147483647,0,0,1,1,2,2,3,3,4,4,5,5,6,6,7,7,9,9,10,10,11,11,12,12,13,13,14,14],"right_children":[2,4,6,8,10,12,14,16,-1,18,20,22,24,26,28,-1,-1,-1,-1,-1,-1,-1,-1,-1,-1,-1,-1,-1,-1],"split_conditions":[2.783E0,1.707E0,1.172E1,2.255E1,1E0,1E0,2.101E1,1.1E-1,-0E0,3.266E1,3E0,5.23E0,1.514E1,2.59E0,3.729E0,-0E0,-1.273279E-2,-2.5493873E-3,-1.2164972E-2,-3.0086392E-3,7.4072774E-3,-1.5866156E-3,1.4320561E-3,1.118115E-3,-1.8989176E-2,-1.0885E-4,2.1614325E-3,6.060953E-3,1.3092303E-3],"split_indices":[1,1,6,6,12,13,6,2,0,2,3,2,2,2,1,0,0,0,0,0,0,0,0,0,0,0,0,0,0],"split_type":[0,0,0,0,0,0,0,0,0,0,0,0,0,0,0,0,0,0,0,0,0,0,0,0,0,0,0,0,0],"sum_hessian":[4.6878E4,1.0449E4,3.6429E4,1.88E2,1.0261E4,1.9662E4,1.6767E4,1.86E2,2E0,7.756E3,2.505E3,1.7082E4,2.58E3,1.5645E4,1.122E3,2E0,1.84E2,7.592E3,1.64E2,1.725E3,7.8E2,7.278E3,9.804E3,2.014E3,5.66E2,4.633E3,1.1012E4,9.76E2,1.46E2],"tree_param":{"num_deleted":"0","num_feature":"22","num_nodes":"29","size_leaf_vector":"1"}},{"base_weights":[-2.4521744E-4,-1.101577E-2,1.0999173E-2,-4.5076545E-2,-6.35681E-3,-8.721095E-3,1.4895405E-2,-5.481668E-2,-2.4820434E-2,-2.8297713E-2,-9.8303E-5,-1.6121088E-2,2.5802324E-2,-0E0,1.9101467E-2,-1.1702654E-2,-4.8915995E-3,-4.19649E-3,-6.8692653E-4,-3.2460087E-3,1.2043297E-4,-1.3321728E-3,9.2324615E-4,-2.688204E-3,2.2610063E-4,3.1522377E-3,-0E0,-8.1994093E-4,1.7401249E-3,1.1273201E-3,2.5025825E-3],"categories":[],"categories_nodes":[],"categories_segments":[],"categories_sizes":[],"default_left":[0,0,0,0,0,0,0,0,0,0,0,0,0,0,0,0,0,0,0,0,0,0,0,0,0,0,0,0,0,0,0],"id":41,"left_children":[1,3,5,7,9,11,13,15,17,19,21,23,25,27,29,-1,-1,-1,-1,-1,-1,-1,-1,-1,-1,-1,-1,-1,-1,-1,-1],"loss_changes":[5.667412E0,3.7191896E0,1.7636714E0,4.2715693E-1,2.855197E0,9.2831767E-1,1.1993842E0,3.2844973E-1,2.2849673E-1,6.90042E-1,2.1064098E0,6.759976E-1,1.4404756E-1,6.186938E-1,6.5892315E-1,0E0,0E0,0E0,0E0,0E0,0E0,0E0,0E0,0E0,0E0,0E0,0E0,0E0,0E0,0E0,0E0],"parents":[2147483647,0,0,1,1,2,2,3,3,4,4,5,5,6,6,7,7,8,8,9,9,10,10,11,11,12,12,13,13,14,14],"right_children":[2,4,6,8,10,12,14,16,18,20,22,24,26,28,30,-1,-1,-1,-1,-1,-1,-1,-1,-1,-1,-1,-1,-1,-1,-1,-1],"split_conditions":[3.225E0,4.92E0,5.83E0,4E0,2E0,3.755E0,2E0,2.142E0,6.75E0,1.773E1,4.34E0,4E0,1E0,3.641E0,4.85E0,-1.1702654E-2,-4.8915995E-3,-4.19649E-3,-6.8692653E-4,-3.2460087E-3,1.2043297E-4,-1.3321728E-3,9.2324615E-4,-2.688204E-3,2.2610063E-4,3.1522377E-3,-0E0,-8.1994093E-4,1.7401249E-3,1.1273201E-3,2.5025825E-3],"split_indices":[1,6,6,0,0,1,0,1,2,6,2,0,13,1,2,0,0,0,0,0,0,0,0,0,0,0,0,0,0,0,0],"split_type":[0,0,0,0,0,0,0,0,0,0,0,0,0,0,0,0,0,0,0,0,0,0,0,0,0,0,0,0,0,0,0],"sum_hessian":[4.6794E4,2.3976E4,2.2818E4,2.841E3,2.1135E4,3.694E3,1.9124E4,1.862E3,9.79E2,4.631E3,1.6504E4,3.082E3,6.12E2,4.208E3,1.4916E4,1.13E2,1.749E3,4.43E2,5.36E2,4.048E3,5.83E2,6.899E3,9.605E3,1.974E3,1.108E3,5.38E2,7.4E1,2.863E3,1.345E3,6.859E3,8.057E3],"tree_param":{"num_deleted":"0","num_feature":"22","num_nodes":"31","size_leaf_vector":"1"}},{"base_weights":[-3.8526166E-4,-2.3349933E-2,4.072877E-3,-8.479759E-2,-2.0069506E-2,-2.3708003E-2,7.4271867E-3,-9.400955E-2,-0E0,-1.4854023E-2,-5.585383E-2,-2.9267868E-2,8.532242E-3,2.2998184E-3,2.3123492E-2,-9.994259E-3,-0E0,-1.4726046E-3,-0E0,-3.5163541E-3,-1.7835156E-4,-7.119697E-4,-2.7577652E-2,-3.81777E-3,-9.993844E-4,-0E0,2.7301498E-3,-4.435614E-4,1.4387729E-3,2.2992615E-4,3.462858E-3],"categories":[],"categories_nodes":[],"categories_segments":[],"categories_sizes":[],"default_left":[0,0,0,0,0,0,0,0,0,0,0,0,0,0,0,0,0,0,0,0,0,0,0,0,0,0,0,0,0,0,0],"id":42,"left_children":[1,3,5,7,9,11,13,15,17,19,21,23,25,27,29,-1,-1,-1,-1,-1,-1,-1,-1,-1,-1,-1,-1,-1,-1,-1,-1],"loss_changes":[4.814661E0,1.3672686E0,3.6129813E0,1.985724E-1,1.2430894E0,7.7946115E-1,2.7670035E0,1.4354634E-1,5.812762E-3,1.6802675E0,9.189105E0,5.6988764E-1,1.0081142E-1,2.227008E0,2.0684104E0,0E0,0E0,0E0,0E0,0E0,0E0,0E0,0E0,0E0,0E0,0E0,0E0,0E0,0E0,0E0,0E0],"parents":[2147483647,0,0,1,1,2,2,3,3,4,4,5,5,6,6,7,7,8,8,9,9,10,10,11,11,12,12,13,13,14,14],"right_children":[2,4,6,8,10,12,14,16,18,20,22,24,26,28,30,-1,-1,-1,-1,-1,-1,-1,-1,-1,-1,-1,-1,-1,-1,-1,-1],"split_conditions":[2.653E0,1.835E0,4.52E0,5E0,1E0,3.698E0,1E0,1.752E1,8.01E0,4.04E0,1.514E1,4E0,3.836E0,3.457E0,3E0,-9.994259E-3,-0E0,-1.4726046E-3,-0E0,-3.5163541E-3,-1.7835156E-4,-7.119697E-4,-2.7577652E-2,-3.81777E-3,-9.993844E-4,-0E0,2.7301498E-3,-4.435614E-4,1.4387729E-3,2.2992615E-4,3.462858E-3],"split_indices":[1,1,6,0,13,1,12,6,2,2,2,0,1,1,4,0,0,0,0,0,0,0,0,0,0,0,0,0,0,0,0],"split_type":[0,0,0,0,0,0,0,0,0,0,0,0,0,0,0,0,0,0,0,0,0,0,0,0,0,0,0,0,0,0,0],"sum_hessian":[4.6713E4,7.654E3,3.9059E4,3.61E2,7.293E3,4.154E3,3.4905E4,3.16E2,4.5E1,6.407E3,8.86E2,3.587E3,5.67E2,2.6391E4,8.514E3,2.85E2,3.1E1,2.5E1,2E1,2.416E3,3.991E3,7.35E2,1.51E2,2.338E3,1.249E3,3.83E2,1.84E2,1.691E4,9.481E3,3.173E3,5.341E3],"tree_param":{"num_deleted":"0","num_feature":"22","num_nodes":"31","size_leaf_vector":"1"}},{"base_weights":[2.2642264E-5,-4.642834E-3,2.0986484E-2,-2.282946E-2,1.0653768E-3,1.6972035E-2,6.342394E-2,-6.501323E-2,-1.8854817E-2,5.5473535E-3,-1.7110668E-2,4.2062877E-3,2.6548889E-2,6.7191064E-2,-0E0,-7.495753E-3,-0E0,-5.0093452E-3,-1.4397899E-3,-7.3324697E-4,1.676785E-3,-3.060142E-5,-5.205408E-3,-6.810914E-4,2.2495273E-3,3.1755983E-3,-0E0,7.2298227E-3,9.2322065E-5,-0E0,-1.6233221E-3],"categories":[],"categories_nodes":[],"categories_segments":[],"categories_sizes":[],"default_left":[0,0,0,0,0,0,0,0,0,0,0,0,0,0,0,0,0,0,0,0,0,0,0,0,0,0,0,0,0,0,0],"id":43,"left_children":[1,3,5,7,9,11,13,15,17,19,21,23,25,27,29,-1,-1,-1,-1,-1,-1,-1,-1,-1,-1,-1,-1,-1,-1,-1,-1],"loss_changes":[4.606031E0,4.004824E0,1.3283691E0,1.4024062E0,2.345654E0,9.124527E-1,2.164576E-1,5.9870005E-1,1.0357955E0,3.4996336E0,3.3158321E0,7.424299E-1,7.020881E-1,1.5538716E-1,2.173383E-3,0E0,0E0,0E0,0E0,0E0,0E0,0E0,0E0,0E0,0E0,0E0,0E0,0E0,0E0,0E0,0E0],"parents":[2147483647,0,0,1,1,2,2,3,3,4,4,5,5,6,6,7,7,8,8,9,9,10,10,11,11,12,12,13,13,14,14],"right_children":[2,4,6,8,10,12,14,16,18,20,22,24,26,28,30,-1,-1,-1,-1,-1,-1,-1,-1,-1,-1,-1,-1,-1,-1,-1,-1],"split_conditions":[1.593E1,2.819E0,2.255E1,2.033E0,1E0,3.94E0,1.878E1,5E0,4.17E0,5.47E0,1.005E1,3.338E0,7E0,3.687E0,1E0,-7.495753E-3,-0E0,-5.0093452E-3,-1.4397899E-3,-7.3324697E-4,1.676785E-3,-3.060142E-5,-5.205408E-3,-6.810914E-4,2.2495273E-3,3.1755983E-3,-0E0,7.2298227E-3,9.2322065E-5,-0E0,-1.6233221E-3],"split_indices":[6,1,6,1,15,2,2,0,6,2,2,1,8,1,13,0,0,0,0,0,0,0,0,0,0,0,0,0,0,0,0],"split_type":[0,0,0,0,0,0,0,0,0,0,0,0,0,0,0,0,0,0,0,0,0,0,0,0,0,0,0,0,0,0,0],"sum_hessian":[4.6814E4,3.8228E4,8.586E3,9.201E3,2.9027E4,7.881E3,7.05E2,7.55E2,8.446E3,2.3359E4,5.668E3,3.453E3,4.428E3,6.76E2,2.9E1,6.54E2,1.01E2,9.4E2,7.506E3,1.0889E4,1.247E4,3.888E3,1.78E3,2.107E3,1.346E3,3.677E3,7.51E2,5.95E2,8.1E1,2.2E1,7E0],"tree_param":{"num_deleted":"0","num_feature":"22","num_nodes":"31","size_leaf_vector":"1"}},{"base_weights":[9.4095674E-5,-9.974612E-3,8.278728E-3,-4.045293E-2,-5.57906E-3,5.2533294E-3,3.5541434E-2,-4.9944326E-2,-1.4272127E-2,-2.3481889E-2,-3.9618657E-4,-6.0294033E-3,1.2720421E-2,2.7606884E-2,6.1019894E-2,-7.094647E-3,-3.8630057E-3,-3.9324504E-3,4.6111685E-3,-4.212934E-3,-1.5047664E-3,-3.2547358E-4,3.2463106E-3,-1.4000945E-3,1.2199907E-3,1.825629E-3,-2.694989E-3,1.2105684E-3,3.9626504E-3,6.231382E-3,-0E0],"categories":[],"categories_nodes":[],"categories_segments":[],"categories_sizes":[],"default_left":[0,0,0,0,0,0,0,0,0,0,0,0,0,0,0,0,0,0,0,0,0,0,0,0,0,0,0,0,0,0,0],"id":44,"left_children":[1,3,5,7,9,11,13,15,17,19,21,23,25,27,29,-1,-1,-1,-1,-1,-1,-1,-1,-1,-1,-1,-1,-1,-1,-1,-1],"loss_changes":[3.8543231E0,2.7227755E0,2.0690813E0,5.352864E-1,1.6593947E0,1.9806778E0,3.632629E-1,2.5087976E-1,1.1440282E0,5.4224443E-1,1.3356745E0,1.3936013E0,3.2861583E0,2.9582858E-1,1.021049E-1,0E0,0E0,0E0,0E0,0E0,0E0,0E0,0E0,0E0,0E0,0E0,0E0,0E0,0E0,0E0,0E0],"parents":[2147483647,0,0,1,1,2,2,3,3,4,4,5,5,6,6,7,7,8,8,9,9,10,10,11,11,12,12,13,13,14,14],"right_children":[2,4,6,8,10,12,14,16,18,20,22,24,26,28,30,-1,-1,-1,-1,-1,-1,-1,-1,-1,-1,-1,-1,-1,-1,-1,-1],"split_conditions":[1.049E1,2.547E0,1.963E1,3E0,2E0,3.84E0,2.313E1,5.4E0,1E0,3.38E0,3.781E0,3.462E0,1E0,4.14E0,2.053E1,-7.094647E-3,-3.8630057E-3,-3.9324504E-3,4.6111685E-3,-4.212934E-3,-1.5047664E-3,-3.2547358E-4,3.2463106E-3,-1.4000945E-3,1.2199907E-3,1.825629E-3,-2.694989E-3,1.2105684E-3,3.9626504E-3,6.231382E-3,-0E0],"split_indices":[6,1,6,3,0,2,6,6,12,2,1,1,13,2,2,0,0,0,0,0,0,0,0,0,0,0,0,0,0,0,0],"split_type":[0,0,0,0,0,0,0,0,0,0,0,0,0,0,0,0,0,0,0,0,0,0,0,0,0,0,0,0,0,0,0],"sum_hessian":[4.6803E4,2.0895E4,2.5908E4,2.585E3,1.831E4,2.3376E4,2.532E3,1.85E3,7.35E2,4.038E3,1.4272E4,9.221E3,1.4155E4,1.982E3,5.5E2,5.52E2,1.298E3,5.37E2,1.98E2,1.143E3,2.895E3,1.3174E4,1.098E3,6.446E3,2.775E3,1.2398E4,1.757E3,9.56E2,1.026E3,5.37E2,1.3E1],"tree_param":{"num_deleted":"0","num_feature":"22","num_nodes":"31","size_leaf_vector":"1"}},{"base_weights":[-0E0,-6.8945065E-3,1.2201956E-2,-1.8710466E-2,3.045911E-4,6.9598802E-3,2.7833756E-2,-2.4685144E-2,-0E0,-5.756693E-3,1.2589748E-2,8.312562E-3,-6.766798E-2,6.196707E-3,7.560835E-2,-2.2413428E-3,-1.0184581E-2,-2.932757E-3,6.0705924E-3,-2.1410636E-3,1.4430558E-4,8.4325834E-4,2.95778E-3,-2.6125899E-3,1.0222058E-3,-1.1433579E-2,1.6713352E-3,-1.2573643E-3,1.5177804E-3,8.763402E-3,-0E0],"categories":[],"categories_nodes":[],"categories_segments":[],"categories_sizes":[],"default_left":[0,0,0,0,0,0,0,0,0,0,0,0,0,0,0,0,0,0,0,0,0,0,0,0,0,0,0,0,0,0,0],"id":45,"left_children":[1,3,5,7,9,11,13,15,17,19,21,23,25,27,29,-1,-1,-1,-1,-1,-1,-1,-1,-1,-1,-1,-1,-1,-1,-1,-1],"loss_changes":[3.933001E0,2.5662403E0,1.326803E0,1.241925E0,1.3843051E0,1.1876996E0,4.1680636E0,1.0889544E0,5.1067715E0,1.4483467E0,3.6997092E-1,8.75711E-1,1.0067034E0,5.0973725E-1,1.1886358E0,0E0,0E0,0E0,0E0,0E0,0E0,0E0,0E0,0E0,0E0,0E0,0E0,0E0,0E0,0E0,0E0],"parents":[2147483647,0,0,1,1,2,2,3,3,4,4,5,5,6,6,7,7,8,8,9,9,10,10,11,11,12,12,13,13,14,14],"right_children":[2,4,6,8,10,12,14,16,18,20,22,24,26,28,30,-1,-1,-1,-1,-1,-1,-1,-1,-1,-1,-1,-1,-1,-1,-1,-1],"split_conditions":[4E0,3.051E0,1E0,1E0,1.344E1,3.4E1,3E0,3.266E1,3E0,3.43E0,1.945E1,2.87E0,1E0,2.95E0,3.657E0,-2.2413428E-3,-1.0184581E-2,-2.932757E-3,6.0705924E-3,-2.1410636E-3,1.4430558E-4,8.4325834E-4,2.95778E-3,-2.6125899E-3,1.0222058E-3,-1.1433579E-2,1.6713352E-3,-1.2573643E-3,1.5177804E-3,8.763402E-3,-0E0],"split_indices":[0,1,12,12,6,2,3,2,3,2,6,6,10,1,1,0,0,0,0,0,0,0,0,0,0,0,0,0,0,0,0],"split_type":[0,0,0,0,0,0,0,0,0,0,0,0,0,0,0,0,0,0,0,0,0,0,0,0,0,0,0,0,0,0,0],"sum_hessian":[4.6706E4,2.9808E4,1.6898E4,1.1372E4,1.8436E4,1.2735E4,4.163E3,8.571E3,2.801E3,1.2255E4,6.181E3,1.2531E4,2.04E2,2.89E3,1.273E3,8.388E3,1.83E2,1.902E3,8.99E2,3.885E3,8.37E3,5.1E3,1.081E3,6.56E2,1.1875E4,1.42E2,6.2E1,8.86E2,2.004E3,1.069E3,2.04E2],"tree_param":{"num_deleted":"0","num_feature":"22","num_nodes":"31","size_leaf_vector":"1"}},{"base_weights":[3.4715762E-5,3.2003787E-3,-2.1509089E-2,-5.902926E-3,1.6957426E-2,5.658748E-3,-2.2937681E-1,-1.358639E-2,7.5979554E-3,2.7128974E-2,-2.5140014E-2,1.2915404E-2,-8.9023694E-2,-1.8126011E-1,-3.612805E-1,-1.6417081E-3,2.7461282E-3,-6.921731E-4,1.1737014E-3,2.0886522E-3,4.0810606E-3,1.3277815E-3,-3.859113E-3,-0E0,3.1872506E-3,-9.223347E-3,-0E0,-2.0233754E-2,-9.311266E-3,-3.716624E-2,-5.302017E-3],"categories":[],"categories_nodes":[],"categories_segments":[],"categories_sizes":[],"default_left":[0,0,0,0,0,0,0,0,0,0,0,0,0,0,0,0,0,0,0,0,0,0,0,0,0,0,0,0,0,0,0],"id":46,"left_children":[1,3,5,7,9,11,13,15,17,19,21,23,25,27,29,-1,-1,-1,-1,-1,-1,-1,-1,-1,-1,-1,-1,-1,-1,-1,-1],"loss_changes":[3.1642513E0,5.1415477E0,3.3883858E1,2.5562878E0,7.0105557E0,3.4764688E0,3.4321823E0,1.991775E0,5.657098E-1,1.0144949E0,1.7533604E0,1.2251093E0,1.6136551E-1,5.710468E-1,1.295166E-1,0E0,0E0,0E0,0E0,0E0,0E0,0E0,0E0,0E0,0E0,0E0,0E0,0E0,0E0,0E0,0E0],"parents":[2147483647,0,0,1,1,2,2,3,3,4,4,5,5,6,6,7,7,8,8,9,9,10,10,11,11,12,12,13,13,14,14],"right_children":[2,4,6,8,10,12,14,16,18,20,22,24,26,28,30,-1,-1,-1,-1,-1,-1,-1,-1,-1,-1,-1,-1,-1,-1,-1,-1],"split_conditions":[1E0,7.68E0,1.878E1,3.386E0,1E0,1.497E1,3.122E1,1.945E1,2E0,3E0,1.005E1,5.53E0,3.81E0,3.546E0,3.774E0,-1.6417081E-3,2.7461282E-3,-6.921731E-4,1.1737014E-3,2.0886522E-3,4.0810606E-3,1.3277815E-3,-3.859113E-3,-0E0,3.1872506E-3,-9.223347E-3,-0E0,-2.0233754E-2,-9.311266E-3,-3.716624E-2,-5.302017E-3],"split_indices":[13,2,2,1,15,2,2,6,0,3,2,2,1,1,1,0,0,0,0,0,0,0,0,0,0,0,0,0,0,0,0],"split_type":[0,0,0,0,0,0,0,0,0,0,0,0,0,0,0,0,0,0,0,0,0,0,0,0,0,0,0,0,0,0,0],"sum_hessian":[4.684E4,4.0907E4,5.933E3,2.4545E4,1.6362E4,5.241E3,6.92E2,1.5721E4,8.824E3,1.321E4,3.152E3,4.885E3,3.56E2,5.18E2,1.74E2,1.4671E4,1.05E3,1.924E3,6.9E3,9.427E3,3.783E3,8.09E2,2.343E3,2.938E3,1.947E3,3.4E2,1.6E1,3.89E2,1.29E2,1.6E2,1.4E1],"tree_param":{"num_deleted":"0","num_feature":"22","num_nodes":"31","size_leaf_vector":"1"}},{"base_weights":[-0E0,-1.573377E-2,4.384016E-3,-2.0475788E-2,8.706593E-3,1.5787415E-3,2.6370876E-2,-2.6793737E-2,-6.2811146E-3,1.2683318E-3,2.9413193E-2,-1.9298064E-2,4.707671E-3,2.2241844E-2,5.842851E-2,-3.239325E-3,-9.120483E-4,-1.2188398E-3,9.941827E-4,-2.3036771E-3,6.299839E-4,3.2581254E-3,-0E0,-2.5733805E-3,-0E0,-2.0085103E-3,6.47119E-4,1.3522151E-3,3.3561708E-3,6.45531E-3,-0E0],"categories":[],"categories_nodes":[],"categories_segments":[],"categories_sizes":[],"default_left":[0,0,0,0,0,0,0,0,0,0,0,0,0,0,0,0,0,0,0,0,0,0,0,0,0,0,0,0,0,0,0],"id":47,"left_children":[1,3,5,7,9,11,13,15,17,19,21,23,25,27,29,-1,-1,-1,-1,-1,-1,-1,-1,-1,-1,-1,-1,-1,-1,-1,-1],"loss_changes":[3.242706E0,1.2095108E0,2.2042959E0,7.2111726E-1,1.97312E-1,2.094264E0,4.0245867E-1,5.612817E-1,2.7816296E-1,1.2950407E-1,5.677679E-2,5.7613313E-1,1.2992563E0,2.874763E-1,1.4017594E-1,0E0,0E0,0E0,0E0,0E0,0E0,0E0,0E0,0E0,0E0,0E0,0E0,0E0,0E0,0E0,0E0],"parents":[2147483647,0,0,1,1,2,2,3,3,4,4,5,5,6,6,7,7,8,8,9,9,10,10,11,11,12,12,13,13,14,14],"right_children":[2,4,6,8,10,12,14,16,18,20,22,24,26,28,30,-1,-1,-1,-1,-1,-1,-1,-1,-1,-1,-1,-1,-1,-1,-1,-1],"split_conditions":[2E0,3.646E0,1.762E1,1.37E1,3.846E0,2.558E0,2.313E1,3E0,1E0,4.71E0,7E0,1E0,2.87E0,1E0,3.681E0,-3.239325E-3,-9.120483E-4,-1.2188398E-3,9.941827E-4,-2.3036771E-3,6.299839E-4,3.2581254E-3,-0E0,-2.5733805E-3,-0E0,-2.0085103E-3,6.47119E-4,1.3522151E-3,3.3561708E-3,6.45531E-3,-0E0],"split_indices":[0,1,6,6,1,1,6,3,12,6,7,12,6,5,1,0,0,0,0,0,0,0,0,0,0,0,0,0,0,0,0],"split_type":[0,0,0,0,0,0,0,0,0,0,0,0,0,0,0,0,0,0,0,0,0,0,0,0,0,0,0,0,0,0,0],"sum_hessian":[4.6755E4,1.0265E4,3.649E4,8.654E3,1.611E3,3.2429E4,4.061E3,5.907E3,2.747E3,1.245E3,3.66E2,4.157E3,2.8272E4,3.645E3,4.16E2,4.312E3,1.595E3,2.076E3,6.71E2,1.58E2,1.087E3,3.41E2,2.5E1,3.111E3,1.046E3,1.891E3,2.6381E4,2.203E3,1.442E3,3.63E2,5.3E1],"tree_param":{"num_deleted":"0","num_feature":"22","num_nodes":"31","size_leaf_vector":"1"}},{"base_weights":[2.8438178E-6,-4.6304865E-3,1.2303343E-2,-1.4761149E-2,2.527562E-3,-4.283734E-3,3.4259487E-2,-1.7529832E-2,2.6382497E-2,-2.2850607E-3,1.5732871E-2,-1.4429912E-2,1.3863083E-2,4.098894E-2,-1.1044481E-2,-1.2347166E-3,-3.6878097E-3,2.7552987E-3,-0E0,-5.4748985E-4,2.2154418E-3,1.1876535E-3,2.96964E-3,-2.1646353E-3,1.0140435E-3,2.0739445E-3,-3.0197103E-3,4.756461E-3,1.8777652E-3,3.5086318E-3,-1.3951219E-2],"categories":[],"categories_nodes":[],"categories_segments":[],"categories_sizes":[],"default_left":[0,0,0,0,0,0,0,0,0,0,0,0,0,0,0,0,0,0,0,0,0,0,0,0,0,0,0,0,0,0,0],"id":48,"left_children":[1,3,5,7,9,11,13,15,17,19,21,23,25,27,29,-1,-1,-1,-1,-1,-1,-1,-1,-1,-1,-1,-1,-1,-1,-1,-1],"loss_changes":[2.6814005E0,2.4797177E0,4.7515783E0,1.5962789E0,1.2792947E0,1.3474327E0,1.7571349E0,1.2375488E0,2.8584182E-2,1.140557E0,2.143141E-1,9.060364E-1,8.060626E-1,6.732149E-1,4.4052553E0,0E0,0E0,0E0,0E0,0E0,0E0,0E0,0E0,0E0,0E0,0E0,0E0,0E0,0E0,0E0,0E0],"parents":[2147483647,0,0,1,1,2,2,3,3,4,4,5,5,6,6,7,7,8,8,9,9,10,10,11,11,12,12,13,13,14,14],"right_children":[2,4,6,8,10,12,14,16,18,20,22,24,26,28,30,-1,-1,-1,-1,-1,-1,-1,-1,-1,-1,-1,-1,-1,-1,-1,-1],"split_conditions":[3E0,3E0,1E0,3.797E0,3.491E0,1E0,1E0,1E0,2.456E1,1.762E1,3.81E0,3.56E0,1E0,1E0,1.537E1,-1.2347166E-3,-3.6878097E-3,2.7552987E-3,-0E0,-5.4748985E-4,2.2154418E-3,1.1876535E-3,2.96964E-3,-2.1646353E-3,1.0140435E-3,2.0739445E-3,-3.0197103E-3,4.756461E-3,1.8777652E-3,3.5086318E-3,-1.3951219E-2],"split_indices":[3,0,5,1,1,20,13,15,2,6,1,1,13,9,2,0,0,0,0,0,0,0,0,0,0,0,0,0,0,0,0],"split_type":[0,0,0,0,0,0,0,0,0,0,0,0,0,0,0,0,0,0,0,0,0,0,0,0,0,0,0,0,0,0,0],"sum_hessian":[4.6823E4,3.3914E4,1.2909E4,1.4137E4,1.9777E4,7.311E3,5.598E3,1.3284E4,8.53E2,1.4403E4,5.374E3,4.748E3,2.563E3,4.906E3,6.92E2,1.0689E4,2.595E3,7.95E2,5.8E1,1.2782E4,1.621E3,4.376E3,9.98E2,3.689E3,1.059E3,2.239E3,3.24E2,3.622E3,1.284E3,5.01E2,1.91E2],"tree_param":{"num_deleted":"0","num_feature":"22","num_nodes":"31","size_leaf_vector":"1"}},{"base_weights":[2.8507538E-5,-1.6926099E-2,3.3256053E-3,-2.1557944E-2,1.1487094E-2,-7.7203684E-4,1.6230246E-2,-2.8130272E-2,-3.7485056E-3,7.558063E-4,3.1757858E-2,-5.8719073E-3,1.0348332E-2,